tree
version=v4
num_class=1
num_tree_per_iteration=1
label_index=0
max_feature_idx=54
objective=regression
feature_names=Column_0 Column_1 Column_2 Column_3 Column_4 Column_5 Column_6 Column_7 Column_8 Column_9 Column_10 Column_11 Column_12 Column_13 Column_14 Column_15 Column_16 Column_17 Column_18 Column_19 Column_20 Column_21 Column_22 Column_23 Column_24 Column_25 Column_26 Column_27 Column_28 Column_29 Column_30 Column_31 Column_32 Column_33 Column_34 Column_35 Column_36 Column_37 Column_38 Column_39 Column_40 Column_41 Column_42 Column_43 Column_44 Column_45 Column_46 Column_47 Column_48 Column_49 Column_50 Column_51 Column_52 Column_53 Column_54
monotone_constraints=0 0 0 0 0 0 0 0 0 1 0 0 0 1 0 0 0 0 0 0 1 -1 0 0 0 0 0 0 -1 0 0 0 0 0 0 0 -1 0 0 0 0 0 1 0 -1 0 0 0 0 0 0 0 0 0 0
feature_infos=[-5.1993374824523926:5.1993374824523926] [-2.0853555202484131:1.2982710599899292] [-5.1993374824523926:3.2902452945709229] [-5.1993374824523926:1.31595778465271] [-5.1993374824523926:5.1993374824523926] [-5.1993374824523926:5.1993374824523926] [-5.1993374824523926:5.1993374824523926] [-5.1993374824523926:5.1993374824523926] [-5.1993374824523926:5.1993374824523926] [-5.1993374824523926:1.3340661525726318] [-2.6517319679260254:1.1210602521896362] [-2.0853555202484131:2.408550500869751] [-1.7330708503723145:1.6844639778137207] [-5.1993374824523926:5.1993374824523926] [-2.4085502624511719:1.2982710599899292] [-5.1993374824523926:0.82141238451004028] [-2.1968939304351807:1.2982710599899292] [-2.6517319679260254:1.2982710599899292] [-2.0853555202484131:1.2982710599899292] [-2.0853555202484131:1.2982710599899292] [-5.1993374824523926:5.1993374824523926] [-5.1993374824523926:5.1993374824523926] [-2.0853555202484131:1.2982710599899292] [-5.1993374824523926:1.0729730129241943] [-2.0853555202484131:2.408550500869751] [-2.7474532127380371:1.8803527355194092] [-5.1993374824523926:2.408550500869751] [-5.1993374824523926:2.0853557586669922] [-5.1993374824523926:5.1993374824523926] [-5.1993374824523926:2.0853557586669922] [-2.3076066970825195:2.6517322063446045] [-2.7474532127380371:2.1830923557281494] [-5.1993374824523926:1.2982710599899292] [-2.0853555202484131:1.2982710599899292] [-5.1993374824523926:0.87904036045074463] [-2.4085502624511719:2.3076069355010986] [-5.1993374824523926:5.1993374824523926] [-2.0853555202484131:1.2982710599899292] [-2.0853555202484131:2.408550500869751] [-2.0853555202484131:2.1830923557281494] [-2.0853555202484131:1.2982710599899292] [-2.0853555202484131:1.2982710599899292] [-5.1993374824523926:5.1993374824523926] [-5.1993374824523926:5.1993374824523926] [-5.1993374824523926:3.8686621189117432] [-2.6517319679260254:2.6517322063446045] none [-2.0853555202484131:1.2982710599899292] none [-5.1993374824523926:5.1993374824523926] [-5.1993374824523926:5.1993374824523926] [-5.1993374824523926:1.0685217380523682] [-5.1993374824523926:5.1993374824523926] [-5.1993374824523926:5.1993374824523926] [-5.1993374824523926:5.1993374824523926]
tree_sizes=13310 14071 14069 14069 14095 14118 14111 14102 14089 14106 14109 14086 14112 14114 14115 14151 14125 14183 14140 14211 14160 14181 14156 14186 14166 14170 14172 14221 14248 14218 14153 14185 14260 14255 14266 14232 14211 14237 14198 14243 14260 14264 14269 14256 14171 14228 14227 14258 14284 14254 14228 14254 14307 14197 14249 14295 14231 14294 14289 14255 14270 14294 14291 14244 14246 14290 14207 14278 14297 14259 14241 14220 14278 14308 14349 14237 14309 14257 14289 14306 14122 14236 14236 14267 14233 14276 14332 14233 14246 14323 14289 14317 14180 14245 14284 14323 14234 14240 14346 14291 14285 14287 14303 14288 14347 14225 14267 14239 14328

Tree=0
num_leaves=127
num_cat=0
split_feature=0 0 0 0 0 0 0 0 51 0 51 0 0 51 51 51 51 51 23 0 20 4 5 0 0 5 6 12 6 4 2 0 0 6 2 5 3 2 3 0 5 3 0 52 6 2 4 0 53 51 51 2 0 3 6 51 0 15 51 51 15 0 5 5 15 6 2 3 52 5 2 51 51 3 10 20 2 15 52 0 0 0 6 5 2 3 6 6 52 4 3 6 0 3 42 51 54 42 51 0 2 3 51 52 6 5 6 3 15 4 3 28 4 4 34 5 51 3 32 3 4 6 5 4 52 3
split_gain=58812.3 10004.7 7611.45 3452.78 1296.47 1161.2 853.613 817.287 780.924 420.095 370.477 356.3 236.599 227.957 172.702 167.995 149.739 148.429 141.862 140.659 137.764 128.345 112.776 110.46 92.0036 91.6675 90.275 80.3257 79.8087 78.316 71.7715 71.3851 66.613 64.4878 63.5594 63.5403 59.8323 57.7207 57.2412 57.0717 56.1719 55.5032 48.8828 46.8424 46.6702 44.7268 44.3277 42.9714 41.9081 41.2642 37.8269 37.6954 35.2491 34.8322 34.1223 33.7871 33.7486 33.186 32.7769 32.7687 32.5962 32.4653 31.5929 31.0646 28.7571 27.662 27.4766 26.2985 26.0735 25.4489 24.9316 23.873 23.4227 22.9731 22.5939 21.9163 23.0409 21.7867 21.7728 21.5136 20.7396 20.0803 19.7616 19.6837 19.0515 19.048 18.9536 18.9128 18.706 18.5235 18.4997 18.1651 17.8013 17.6235 17.3418 17.2311 17.0199 16.8612 16.8007 15.9992 15.8511 17.2405 15.6883 15.6804 15.5175 15.3974 15.2674 15.2284 15.1415 14.7988 16.9486 14.6595 14.3526 14.2696 13.8652 13.8359 13.5828 13.5809 13.4295 12.9937 12.7182 23.8831 13.1112 12.4695 12.4665 12.0042
threshold=0.25857207179069525 -0.71603286266326893 0.95909672975540172 -1.717810273170471 -0.22980945557355878 1.6350423693656924 0.6417071819305421 -2.4532908201217647 -1.6211367845535276 -1.2006938457489011 -1.7773585915565489 2.4838461875915532 1.2046031951904299 -0.046731481328606599 -2.725871086120605 -0.57838192582130421 -0.62440669536590565 -2.725871086120605 0.68741388618946087 -2.1066337823867793 0.75566542148590099 0.38893203437328344 -0.038872821256518357 -2.743565440177917 0.14278686046600345 -0.49493002891540522 0.48145854473114019 -1.3210228979587553 0.10498060286045076 0.55366310477256786 -2.875206738710403 2.0336811542510991 0.059167429804801948 0.3092725425958634 0.35223168134689337 -0.53834268450736988 -0.34016339480876917 -2.875206738710403 -0.34016339480876917 -1.5056793689727781 -0.49493002891540522 -0.34016339480876917 2.6935738325119023 0.88258665800094616 0.3092725425958634 -2.875206738710403 1.0603765249252322 0.97963872551918041 -0.30927257239818567 -0.1836278215050697 -2.2070403099060054 -2.875206738710403 -1.3984212279319761 -0.43693001568317408 0.20087142288684848 -3.139856100082397 0.5414075255393983 -1.0000000180025095e-35 0.42060077190399175 -3.1655775308609004 -2.7938838452100749 -0.41707381606101984 -0.019776982255280014 0.49312421679496771 -2.7938838452100749 -0.7162543237209319 -2.875206738710403 -0.32028995454311365 0.82233387231826793 -0.66048577427864064 -2.875206738710403 -0.36912637948989863 -1.6768099665641782 -0.32933391630649561 1.0000000180025095e-35 0.66713714599609386 -2.875206738710403 -2.7938838452100749 0.65703624486923229 -0.56133800745010365 0.52079889178276073 -0.73906555771827687 0.10498060286045076 -0.72910690307617176 -2.875206738710403 -0.32028995454311365 0.24915364384651187 0.38744048774242407 0.87969401478767406 0.47231228649616247 -0.32028995454311365 0.74403309822082531 -1.9113150835037229 -0.43693001568317408 1.2855830788612368 -2.262942790985107 1.0000000180025095e-35 2.4351509809494023 -3.139856100082397 0.80905959010124218 -2.875206738710403 -0.31105926632881159 -0.026454064995050427 0.88152295351028453 0.20087142288684848 -0.95890116691589344 -0.92454057931900013 -0.34914965927600855 -2.7938838452100749 0.63480964303016674 -0.41358359158039087 1.051699757575989 1.6922214031219485 0.33809791505336767 -0.57355887070298184 -0.52746930718421925 -1.8460430502891538 -0.78931415081024159 -0.55772528052330006 -0.32028995454311365 0.33809791505336767 0.3092725425958634 -0.49493002891540522 0.56448814272880565 0.77701190114021312 -0.32028995454311365
decision_type=2 2 2 2 2 2 2 2 2 2 2 2 2 2 2 2 2 2 2 2 2 2 2 2 2 2 2 2 2 2 2 2 2 2 2 2 2 2 2 2 2 2 2 2 2 2 2 2 2 2 2 2 2 2 2 2 2 2 2 2 2 2 2 2 2 2 2 2 2 2 2 2 2 2 2 2 2 2 2 2 2 2 2 2 2 2 2 2 2 2 2 2 2 2 2 2 2 2 2 2 2 2 2 2 2 2 2 2 2 2 2 2 2 2 2 2 2 2 2 2 2 2 2 2 2 2
left_child=1 3 6 7 10 12 18 23 14 36 17 31 29 32 55 28 61 59 20 38 49 64 51 41 48 26 46 62 68 108 86 89 88 -31 92 47 71 50 95 -38 44 102 -13 57 109 -19 96 69 75 53 -16 54 -39 -2 -17 -5 120 79 -26 -3 -30 103 -24 -51 107 -52 91 77 118 -35 114 78 -36 -53 -28 -15 111 -34 -10 -18 -32 90 -59 123 -27 -86 -22 -79 -6 93 -29 -62 -21 -7 -88 -9 -14 -44 -43 -66 -84 -102 -1 112 -83 -76 -81 -8 -4 -23 -111 -77 -12 -50 -41 -48 -90 -58 -11 -60 121 -20 -122 -46 -67 -25
right_child=2 4 5 8 13 11 21 19 9 15 16 42 25 24 37 22 43 45 56 34 30 40 27 125 58 84 74 81 60 33 80 -33 67 35 72 -37 39 52 -40 70 -42 98 97 -45 83 -47 115 -49 113 63 65 73 -54 -55 -56 -57 117 82 119 -61 66 -63 -64 -65 99 124 -68 -69 -70 -71 -72 -73 -74 -75 105 76 -78 87 -80 106 -82 104 100 -85 85 -87 94 -89 116 -91 -92 -93 -94 -95 -96 -97 -98 -99 -100 -101 101 -103 -104 -105 -106 -107 -108 -109 -110 110 -112 -113 -114 -115 -116 -117 -118 -119 -120 -121 122 -123 -124 -125 -126 -127
leaf_value=13.023319261099957 13.0751221386971 12.955803744365928 13.093629572483767 12.980128132491926 13.072397988624417 13.102083964511944 13.083225401942636 13.031079830961989 13.05787432464493 13.060590672265072 13.064134932826873 13.127463807736719 13.107370417146045 13.077693792920313 13.034206849601718 13.07086661461816 13.066576604993992 13.042314240085092 13.077363542257999 13.038217463382944 13.085906641128046 13.096134717060572 13.061587113667718 13.031257407596282 13.079763156072961 13.092363403224054 13.10651816805453 13.066085242247684 13.057594079296459 13.10272784303479 13.085906641128046 13.120556218644319 13.067944864947608 13.125481790530328 13.043114216081982 13.10123497916811 13.048204175706791 13.046994208495081 13.030335294379212 13.05542553120892 13.09269837149972 12.991511308439799 13.13725466522658 13.066940156109366 13.101796955409451 13.060508246414813 13.113753859509094 13.107781174749915 13.075001132208429 13.085856134832406 13.04139978341971 13.069814345823129 13.053166076219194 13.083174999041621 13.081085519381999 13.019642690634326 13.095513865138628 13.071006118661941 13.087105590435836 13.01319776847393 13.063786962578209 13.067232557606335 13.051679505566305 13.082136511416072 13.091789256587804 13.053298010082385 13.061472608894837 13.078015080467425 13.055637758710921 13.113435095924489 13.053383574566283 13.063959095840499 13.050337264863323 13.061350570090687 13.116495015027066 13.08994106442869 13.079913123994771 13.072872542459637 13.053263665163808 13.067882515378443 13.089531420641798 13.067211820465344 13.081522337308218 13.098014662419557 13.099165233183561 13.106852272258687 13.093593538377677 13.077798415611744 13.037942039379622 13.114990261714187 13.061033257598361 13.06919552227842 13.042928303918027 13.113200904587925 13.101949499387652 13.042428759797499 13.103482464975908 13.150588982557505 13.005631870974002 13.094873536777135 13.0765169074631 13.069700669037301 13.073625460300173 13.060965599390752 13.078486707441424 13.112444841184466 13.070739671440037 13.091621594870837 13.100144914802399 13.102432912418207 13.097362251888383 13.079913123994771 13.070149726598322 13.079787630134724 13.061916025886012 13.104443576599259 13.069356674121078 13.091070544047353 13.057945291206416 13.081793710080301 13.090642286853969 13.087703097313161 13.087607001125436 13.107421140213098 13.043160541255418 13.021601289631306
leaf_weight=316.57000291720033 2737.2800378501415 30.640000388026237 989.4800132215023 77.560001119971275 22911.930300269276 576.12000541388988 1221.120015412569 422.72000370919704 9917.6901088543236 10062.990119140595 13254.680167481303 1598.4000220149755 11948.830216746777 12820.760154679418 976.16000829637051 3379.4400395750999 5661.6400805711746 840.11000755056739 655.56000962853432 3715.7800414934754 488.00000624358654 10760.600161656737 1435.0500169582665 486.20000439882278 11435.210144106299 507.12000617384911 1193.2800112366676 3734.3300431258976 2225.9600345939398 12368.520200356841 7068.0800835192204 6884.1400961503386 1282.320016503334 712.88000936806202 1715.2800164520741 1856.4400208443403 4676.2000654935837 4965.490053538233 3618.6300419829786 1829.980025537312 4899.3000578358769 297.80000311136246 1410.7600174844265 13566.29018336907 2203.5200331658125 572.80000622570515 3207.8900530673563 2371.2800405472517 21408.360280662775 10958.680135726929 1927.4800204336643 1935.1200194358826 4430.1500469855964 2633.5300358124077 1075.8000109046698 214.9600018709898 2390.9200328588486 9702.9101181738079 2584.170030195266 172.36000163853168 3165.0600413605571 11434.340146400034 1866.9600219130516 11533.130144435912 10471.270122062415 1122.56001098454 5025.4200611934066 7252.460102416575 6510.6100805737078 1231.2000196278095 10039.6701390706 1238.3200147747993 3444.8800389170647 1377.9500170908868 3764.5600492358208 1110.6000126600266 1946.9200236201286 4581.7600531429052 3508.6000380069017 6326.6400888562202 4493.2900516577065 2357.0000295042992 771.28000925481319 1756.7700226195157 1714.2000154554844 1571.5200195610523 3418.3200377523899 3394.4000388681889 33.800000369548798 13592.430198248476 3571.5700579918921 3078.6000332087278 4747.3000538572669 1005.4400132596493 767.52001005411148 1960.6000193655491 3804.760057091713 320.52000549435616 1293.8600144162774 7133.8200800195336 2225.7200218588114 1593.2800204306841 16.720000237226486 3816.1700462140143 349.48000408709049 6980.2000956237316 18176.040262043476 974.20001502335072 10849.420136444271 2499.33004084602 5055.5200846195221 492.36000454425812 1081.3500115685165 1677.2000232189894 1540.1200185716152 477.84000863134861 5505.8000731915236 6342.7300937958062 9455.0001289844513 2087.2300289981067 7757.9001121595502 3731.9600445777178 6657.0100844837725 1882.1200357228518 433.6800040602684 1362.6800149381161
leaf_count=372 3618 43 1277 104 29964 686 1549 495 12281 12789 17175 2084 17093 16178 1168 4221 7578 1005 890 4706 631 14390 1839 578 14691 635 1422 4694 2994 16964 8970 9009 1639 902 2075 2311 6306 6220 4636 2398 6200 371 1777 17917 2935 714 4474 3319 27882 13999 2408 2344 5495 3553 1300 257 3133 12431 3212 212 4167 14877 2363 14719 13171 1388 6463 9854 8432 1691 13360 1563 4318 1804 4842 1389 2447 5763 4354 8364 5621 3086 987 2253 2044 2035 4214 4231 46 17938 4944 3809 6057 1299 983 2386 5083 446 1645 8891 2691 2067 21 4931 444 9006 24301 1338 13845 3450 6966 586 1366 2219 1993 687 7228 8469 12465 2763 10330 4654 8542 2715 536 1715
internal_value=13.0781 13.0646 13.0986 13.054 13.072 13.1095 13.0904 13.0366 13.0578 13.0595 13.0676 13.1186 13.106 13.0759 13.0469 13.0619 13.068 13.0439 13.0869 13.0407 13.0851 13.0955 13.0655 13.0153 13.078 13.1088 13.1097 13.0627 13.06 13.1028 13.0888 13.1163 13.0732 13.1048 13.0435 13.109 13.0549 13.0477 13.0343 13.053 13.0976 13.0069 13.1339 13.0695 13.0986 13.0497 13.1076 13.1123 13.0767 13.083 13.043 13.0703 13.0499 13.0791 13.0733 13.0089 13.0897 13.0703 13.0812 13.004 13.0631 13.0651 13.056 13.0839 13.0924 13.0454 13.0642 13.0758 13.0584 13.1179 13.0546 13.0573 13.0479 13.0663 13.1131 13.0787 13.0821 13.074 13.0567 13.0694 13.0867 13.065 13.0723 13.1025 13.1015 13.1029 13.094 13.075 13.0718 13.1144 13.0636 13.0665 13.0409 13.1092 13.0951 13.0404 13.1064 13.1398 13.0029 13.093 13.075 13.0737 13.0258 13.0638 13.0687 13.1139 13.07 13.087 13.0996 13.0973 13.099 13.0868 13.0646 13.0753 13.0584 13.1126 13.0692 13.0923 13.0593 13.0847 13.0885 13.0862 13.0892 13.1044 13.0504 13.0241
internal_weight=532084 320656 211429 130904 189752 90937.2 120491 23399 107505 93356.9 89226.3 25387.8 65549.4 100525 14148 60606.3 87610.3 1615.91 71633.9 19625.2 44097.8 48857.6 21082.7 3773.83 55562.8 35170.2 31377.4 13314.4 39523.6 30379.2 16235.2 22058.1 44962.5 18540.3 13623.2 6171.8 32750.6 13855.5 6001.95 18086 29057.2 1924.95 3329.68 58023.8 24157.9 1412.91 19439.3 4315.36 39456.2 27862.6 4459.88 7768.31 9395.64 5370.81 4455.24 292.52 27536.1 44457.5 16106.6 203 13495 29586.5 3302.01 22491.8 19800.4 3483.72 11269.1 16510.9 26028.6 1944.08 13409.8 14664.6 5160.16 3313.07 11938 16370.6 3549.88 9258.48 13426.3 30164.3 11561.4 10012.4 14293.2 5842.41 3792.84 3285.72 4673.84 7976.16 28451.5 15174 7305.9 6243.66 8463.08 1581.56 4185.84 2383.32 15753.6 1731.28 1591.66 17605.1 4590.28 3819 333.29 18152.2 2706.48 10744.8 24502.7 2195.32 11838.9 18315.5 7554.85 1602.96 14336 23085.6 3370.1 3685.73 5539.6 8733.65 19518 4671.4 18802.4 4387.52 14414.9 4085.64 1556.24 1848.88
internal_count=691168 414115 277053 167364 246751 120869 156184 29375 137989 120413 116659 33239 87630 130092 17576 78158 114685 1974 92326 24673 56308 63858 27039 4702 71367 47321 42607 17370 51119 40309 20419 28932 58725 25187 17156 8223 42255 17215 7517 24057 38909 2409 4307 76336 32709 1719 27337 5912 50701 35889 5500 9669 11715 7171 5521 361 36018 58419 20666 255 17433 38349 4202 28718 24949 4332 14439 21487 33686 2593 17751 18198 6393 4148 15270 20600 4422 11633 16635 40243 14591 13168 18176 7903 4714 4079 5828 9994 37238 19923 9638 7976 10763 1985 5197 2881 22176 2223 2016 22062 5745 4758 393 23472 3530 13848 32665 2887 15122 24806 10416 1975 18541 30101 4391 5161 7274 11602 25254 5975 24416 5544 18872 5650 1924 2293
is_linear=0
shrinkage=1


Tree=1
num_leaves=127
num_cat=0
split_feature=0 0 0 0 0 0 0 51 0 0 51 0 0 0 51 51 51 51 0 4 5 0 4 51 37 5 53 51 9 12 4 6 0 6 5 2 0 13 3 2 13 0 3 3 20 5 6 2 0 4 0 2 9 2 3 51 0 6 13 51 3 51 9 9 5 0 2 9 2 9 5 3 5 6 9 5 2 9 2 51 3 4 2 9 6 3 13 2 3 20 2 9 0 5 9 42 34 51 0 51 3 51 6 42 51 51 0 5 6 37 51 9 52 5 4 3 6 52 51 13 9 3 2 52 52 5
split_gain=53093.2 9708.44 6123.05 3116.44 1391.69 1049.38 737.828 705.247 611.751 380.695 378.491 303.666 233.261 229.742 154.853 153.085 147.788 142.792 126.956 103.396 101.782 99.7171 94.5957 93.264 87.5955 87.053 79.877 79.6751 74.5902 72.4996 70.6843 65.7407 62.5577 58.2172 57.7543 57.3526 55.6497 54.9716 54.0421 53.4431 51.8923 51.7483 51.6389 50.0563 47.1094 62.4527 46.7416 46.1405 44.1247 42.3647 40.0617 39.6054 37.2913 34.0233 33.954 32.4023 31.4062 30.7978 30.6162 30.5627 30.4527 30.0003 29.391 28.965 28.5092 28.081 27.3077 26.9273 26.8587 25.8074 25.3331 24.4369 24.049 23.7894 23.4044 23.3881 22.5934 21.9995 21.6822 21.1371 20.733 19.9744 21.3545 19.2576 18.9402 18.8606 18.2842 17.6658 18.1745 17.6648 17.8699 17.319 17.28 17.1831 16.9578 16.7018 16.6427 16.4382 16.424 15.8888 15.7445 15.6365 15.3358 15.2297 15.1785 15.1574 14.9453 14.7542 14.5383 14.4494 14.1457 13.7463 13.6866 13.3248 13.2425 15.4611 12.6954 12.6092 12.4229 12.366 12.0664 11.6146 11.5694 11.2338 11.1659 11.1364
threshold=0.31126245856285101 -0.71603286266326893 0.95909672975540172 -1.717810273170471 -0.076537042856216417 1.6742941141128542 -2.4532908201217647 -1.6266171932220457 0.68500429391860973 -1.2006938457489011 -1.7773585915565489 2.4838461875915532 1.2046031951904299 -0.36334986984729761 -2.725871086120605 -0.57838192582130421 0.42060077190399175 -2.725871086120605 -2.1066337823867793 -0.44760526716709131 -0.038872821256518357 -2.743565440177917 0.38893203437328344 -0.6856345236301421 -0.38265398144721979 -0.49493002891540522 -0.4814585000276565 -0.083546103909611688 -0.59409192204475392 -1.3210228979587553 0.55366310477256786 0.10498060286045076 0.55416709184646618 0.3092725425958634 -0.52746930718421925 0.35223168134689337 2.0336811542510991 -0.053391760215163224 -0.34016339480876917 -2.875206738710403 1.0441845655441286 -1.5056793689727781 -0.34016339480876917 -0.34016339480876917 0.95111581683158886 -0.39204314351081843 0.38744048774242407 -2.875206738710403 2.6935738325119023 1.0603765249252322 0.97963872551918041 -2.875206738710403 -1.4242570996284483 -2.875206738710403 -0.32028995454311365 -2.2070403099060054 -1.2006938457489011 0.20087142288684848 -1.7142013907432554 -3.139856100082397 -0.32028995454311365 -3.1655775308609004 -1.4242570996284483 -0.59409192204475392 -0.019776982255280014 0.10581481456756593 -2.875206738710403 -0.59409192204475392 -2.875206738710403 -0.59409192204475392 -0.49493002891540522 -0.50706100463867176 -0.66048577427864064 -0.7162543237209319 -0.59409192204475392 -0.51635107398033131 -2.875206738710403 -0.59409192204475392 -2.875206738710403 -1.6768099665641782 -0.32933391630649561 0.65108665823936474 -2.875206738710403 -0.59409192204475392 0.24915364384651187 -1.5504223704338072 -1.0000000180025095e-35 -2.875206738710403 -0.32028995454311365 0.657108634710312 -2.875206738710403 -1.4242570996284483 0.5025656819343568 0.054028499871492393 -0.59409192204475392 0.83235421776771557 -0.57355887070298184 -0.66827723383903492 -1.8644446134567259 -0.36912637948989863 -0.32028995454311365 -2.3339686393737789 -0.16001090407371518 2.4351509809494023 -3.139856100082397 -0.81806331872940052 0.07486188039183618 0.96852493286132824 -0.17846719920635221 -0.38265398144721979 -0.026454064995050427 -0.59409192204475392 0.58424371480941784 -0.53834268450736988 0.47231228649616247 -0.43693001568317408 0.91216108202934276 0.83028420805931102 -0.69000038504600514 0.490547925233841 -1.4242570996284483 -0.89297261834144581 -2.875206738710403 0.77701190114021312 0.88258665800094616 -0.51635107398033131
decision_type=2 2 2 2 2 2 2 2 2 2 2 2 2 2 2 2 2 2 2 2 2 2 2 2 2 2 2 2 2 2 2 2 2 2 2 2 2 2 2 2 2 2 2 2 2 2 2 2 2 2 2 2 2 2 2 2 2 2 2 2 2 2 2 2 2 2 2 2 2 2 2 2 2 2 2 2 2 2 2 2 2 2 2 2 2 2 2 2 2 2 2 2 2 2 2 2 2 2 2 2 2 2 2 2 2 2 2 2 2 2 2 2 2 2 2 2 2 2 2 2 2 2 2 2 2 2
left_child=1 3 8 6 10 12 21 14 19 38 17 36 30 23 59 28 24 61 42 83 53 43 52 108 54 26 77 69 -11 64 91 105 44 -32 50 98 114 58 67 55 70 -40 101 110 45 -21 65 -19 -13 96 72 84 -10 57 63 -16 -41 -17 68 -5 -18 -3 -48 -6 -22 -26 107 -9 102 118 -24 -47 -35 -57 -60 121 111 -14 93 -37 -55 -79 125 -2 -46 -42 -31 -27 -89 -64 -91 -4 -85 -39 -29 -86 -28 -71 -20 112 -80 -8 -25 -50 -45 -30 -56 119 -12 -54 -1 -43 -69 -51 115 -7 -96 -65 -15 -33 -77 -34 -88 -75 -76 -83
right_child=2 4 5 7 16 11 18 9 22 15 13 48 25 27 39 20 60 47 35 32 29 -23 40 37 46 87 49 94 31 86 33 66 75 34 -36 79 -38 78 41 56 85 76 -44 104 51 71 62 -49 103 113 -52 -53 109 80 106 73 -58 -59 74 -61 -62 -63 89 117 -66 -67 -68 99 -70 97 -72 -73 -74 123 124 120 -78 81 100 -81 -82 82 -84 92 95 -87 122 88 -90 90 -92 -93 -94 -95 116 -97 -98 -99 -100 -101 -102 -103 -104 -105 -106 -107 -108 -109 -110 -111 -112 -113 -114 -115 -116 -117 -118 -119 -120 -121 -122 -123 -124 -125 -126 -127
leaf_value=-0.052098475846651372 -0.0025779697178081799 -0.11666773883224296 0.011449446633335345 -0.093183799305265103 -0.01086423350352202 0.022800813455358726 -0.045903857192729068 -0.023547283442179337 0.0036688292054591052 -0.02115062952149448 -0.015188117851755244 0.046849016420965721 0.024677314365810901 -0.014522959696533229 -0.041748883136102657 -0.0069199647561207145 0.0085515190980887234 -0.034179438749913867 -0.037314192711532204 0.0099006951216013914 -0.015735960110810968 -0.051340496760485868 0.018648366721348713 -0.028344601695056315 -0.0026806346905222309 0.013503490322319468 0.024367584101126685 -0.0067115012224555548 -0.018599064881633005 -0.013920393734203685 0.023348410014689458 -0.013141215486058134 0.017402879821141814 0.044967874327170664 0.021019346580085765 -0.033285656781298613 0.040285574770621363 0.0016732763470230186 -0.028450937771807253 -0.028660706696178342 0.027492460647422525 -0.023483357448927614 -0.045425272572569481 -0.082321898577422517 0.0099006951216013914 0.0023422682545725911 -0.0044645011283795553 -0.016609380979861154 0.056150880941619866 0.034221257024788974 0.028050660804056566 0.0099006951216013914 0.0091436719189234138 -0.00791972767125349 -0.0035765556126928794 -0.035068837738806272 -0.021947026626066898 0.0027882386121284805 -0.012903851713339291 -0.055596132368179833 0.0028798433741794201 -0.062095825827575071 0.0015484787085932906 -0.0034481960898453193 -0.02514831822084795 0.00049214206851591754 -0.015753538328049738 -0.017964003266300498 -0.013460296413359496 -0.0086847042364756998 0.014097532437373946 0.006900211766981211 0.033328696600639654 -0.023824849977219772 -0.0087589452402388867 0.0035049488397346411 -0.023535301884386736 0.031443038244687686 -0.0060104140033272633 -0.026423142078481995 -0.015960709440324971 0.040139772690632014 0.033116224784923536 0.0030004975540622336 0.01427102323536901 0.021226794157252177 -0.0057779984913711203 0.020051983753151138 0.027380529962523843 0.011016066781419368 0.0035953722719099068 0.020792378816658588 0.0081767480760631134 -0.005724772350581467 -0.0038152795608860646 0.020864624917240469 0.028029981180679033 -0.0061641413843405071 -0.032756160075495179 -0.012527626482907089 -0.0087589452402388867 -0.034153644564418606 -0.013460296413359496 0.068827655859810016 -0.068895668062967555 -0.015580069598783552 0.00044501017169058842 -0.0058624230278772884 -0.012340026696725685 0.014932353943433202 -0.0043117223040611821 -0.016574600048315395 -0.021072280800498496 0.026374354750172569 0.035250155794363768 0.034044572233770179 0.00024871278976795313 -0.0075887524178297784 -0.0093790633673530386 -0.0065226024924861644 0.011270514646868315 0.013246409371435869 -0.011585435079293856 -0.033712659429933789 -0.011118002279742564 0.030791778948373174
leaf_weight=316.57000291720033 964.92001505196095 30.960000410676003 525.52000704407692 77.560001119971275 2001.8500251807272 499.84000471234322 343.92000293731689 3703.6100425459445 822.98001190274954 9405.5501262508333 8113.7201005667448 1598.4000220149755 725.00001026690006 1570.520022213459 976.16000829637051 3379.4400395750999 4523.2900523729622 872.87000791355968 4958.6200556382537 15948.420211918652 1435.0500169582665 1848.8800193369389 16487.320246979594 571.26000631600618 14730.990190025419 507.12000617384911 4306.9200638532639 4701.000055283308 13750.020176030695 6994.180095307529 12368.520200356841 4023.5300490744412 2305.9600363075733 712.88000936806202 1576.7200175374746 1715.2800164520741 6884.1400961503386 1087.8000153303146 4717.5600658655167 6755.6600718274713 1801.2400380820036 1071.2800148427486 3618.6300419829786 297.80000311136246 709.88000878691673 4178.3600461184978 1617.2000221312046 661.48000733554363 1410.7600174844265 3258.3100541494787 2613.40004350245 5662.7700698561966 473.08000621199608 1935.1200194358826 4211.2100632973015 1896.6800202429295 2386.2200261577964 1075.8000109046698 6058.3200830519199 214.9600018709898 4973.6700715683401 176.96000169217587 12789.880149185658 8597.0001044422388 1866.9600219130516 13238.040168970823 4892.8600600734353 7248.5200775414705 1251.8300155512989 10415.350133385509 3789.4600458368659 9968.5601347088814 1268.8000199794769 1087.2800105363131 13514.440188139677 526.6000072658062 10111.230139862746 5376.7200682908297 6030.7800676301122 3444.8800389170647 1377.9500170908868 2496.44003431499 3872.2000540494919 4267.8400526046753 3118.840035662055 3782.4500585086644 1352.080015823245 1795.8400163203478 1651.1200206577778 992.2800103276968 4467.0400495529175 11313.380142621696 2597.0500309504569 2805.4800413250923 17228.25022322312 1407.2800172269344 12097.240219831467 17199.710233148187 3504.4600397124887 993.60001178085804 4790.4400720745325 2039.4000201374292 109.52000111341476 320.52000549435616 1293.8600144162774 5532.5900659970939 5111.7400768622756 1245.8100129850209 10203.920132294297 14278.950164627284 16.720000237226486 2298.8200292661786 2761.3200302273035 680.86001136153936 11834.340170286596 849.20001117885113 2160.2000194042921 2190.6800264269114 4768.9800647869706 863.6400103867054 11277.570134017617 6473.7800962552428 1666.1200235784054 407.80000387132168 5631.0400775969028 393.04000429809093
leaf_count=372 1349 44 677 104 2546 593 401 4624 1103 12329 10507 2084 952 2086 1168 4221 5621 1050 6294 20676 1839 2293 21976 740 19187 635 5743 5981 17751 9236 16964 5158 3144 902 1965 2075 9009 1468 6356 8403 2713 1407 4636 371 914 5181 2134 827 1777 4544 3620 7223 622 2344 5782 2374 2996 1300 7962 257 6599 222 16005 10899 2363 17251 6298 8930 1627 13508 4823 12981 1736 1344 17912 704 13454 6780 7527 4318 1804 3255 5061 5484 3879 5128 1747 2146 2139 1217 5593 14445 3328 3779 22355 1777 17313 22705 4469 1252 6505 2480 133 446 1645 7169 7033 1533 13275 17910 21 2984 3445 956 15542 1099 2557 2783 6219 1109 14206 8646 2185 505 7529 486
internal_value=-3.56865e-06 -0.0123483 0.020204 -0.022928 -0.00540275 0.0298201 -0.0394645 -0.0193284 0.0123146 -0.0177736 -0.00880214 0.0389472 0.0266577 -0.00846093 -0.0298812 -0.0154281 -0.000269875 -0.031932 -0.0355668 0.00944421 -0.0119825 -0.0597174 0.0171224 -0.0106261 -0.00106458 0.0293162 0.0301527 -0.00621631 -0.0172567 -0.0146367 0.0234047 -0.0160475 0.0101324 0.0253353 0.0293118 -0.0328887 0.036622 -0.00932286 -0.0221063 -0.0290969 0.0189776 -0.0239318 -0.0416384 -0.0677299 0.00900217 0.00798108 0.000138339 -0.0266237 0.0529445 0.0281957 0.0321509 0.0118203 0.0140405 -0.00743151 -0.00366695 -0.0336627 -0.0269114 -0.00457452 -0.0106578 -0.0658628 0.00558234 -0.0707652 0.00199288 -0.0053398 -0.0210652 -0.00117878 -0.0129635 -0.0198457 -0.0167292 -0.00777683 0.0177989 0.00555462 0.0375388 -0.0313224 -0.0101914 0.0123826 -0.022348 0.0332447 -0.00686012 -0.0287113 -0.0112694 0.0337539 0.0355858 0.00403051 0.0150595 0.0232535 -0.0125142 0.0222846 0.0235708 0.0025656 0.00494684 0.0203791 0.00496035 -0.00365654 -0.0040163 0.0163264 0.0270703 -0.00711526 -0.0354314 -0.0185973 -0.00801181 -0.0358699 -0.0248294 0.0585391 -0.071461 -0.0178099 -0.0013712 -0.0107347 -0.0136026 0.0146185 -0.0497362 -0.0187785 -0.019198 0.0328733 0.0347056 0.0299023 -0.00336223 -0.00431327 -0.0106563 -0.0119742 0.0109248 0.0143405 -0.00925048 -0.0265459 -0.00933215 0.038881
internal_weight=532084 330304 201781 130904 199400 90937.2 23399 107505 110843 93702.6 119955 23397.2 67540 118213 13802.3 60796.7 79444.9 1742.27 19625.2 69407.8 21082.7 3773.83 41435.5 60168.6 69947.9 37160.8 33206.7 58044 39714 13314.4 30379.2 30308.5 61578 18540.3 6171.8 13623.2 20067.5 41850.9 32905.9 13509.8 25860.5 18198.9 6001.95 1924.95 40994.1 30095.3 47835.4 1534.35 3329.68 20343.3 4595.08 10898.8 15575 7768.31 22112.5 4367.92 9141.88 4455.24 27136.4 292.52 9496.96 207.92 19866.4 12789.5 3302.01 27969 11025.8 14707.1 1932.61 33954.6 20276.8 14146.9 1981.68 3391.76 25203.8 20583.9 13481.3 12863.4 14714.5 5160.16 3313.07 12138.4 6761.68 7829.81 5236 5583.69 10012.4 3954.08 3446.96 18249.2 5459.32 11838.9 6864.89 3893.28 24089.5 4526.12 16404.2 27615.1 8463.08 11003.4 10821.2 2383.32 680.78 1731.28 1591.66 19282.6 9322.95 6132.98 18317.6 14752 333.29 3370.1 10009.8 3939.17 13183.4 1349.04 19388.5 10787.7 6339.5 4887.17 11804.2 8779.74 3018.2 1495.08 19145.5 2889.48
internal_count=691168 426532 264636 167364 259168 120869 29375 137989 143767 120838 156518 30550 90319 154375 17151 78386 102650 2143 24673 89492 27039 4702 54275 78964 90430 50010 45090 75411 51347 17370 40309 39018 79331 25187 8223 17156 26243 55182 42452 16790 34640 24201 7517 2409 52631 38838 61387 1877 4307 28556 6258 13793 19635 9669 29043 5391 11399 5521 35903 361 12220 266 24949 16228 4202 36438 14098 18251 2500 44518 26799 18162 2638 4223 33403 26700 17845 16534 19279 6393 4148 15582 8802 10161 6570 7841 13168 4920 4285 22815 6810 15122 8812 5247 30893 5656 23056 36213 10763 13627 14032 2881 873 2223 2016 24920 12815 7800 23782 18532 393 4391 12375 5500 17234 1692 24912 13682 8305 6267 14910 11790 3932 1849 25441 3741
is_linear=0
shrinkage=0.05


Tree=2
num_leaves=127
num_cat=0
split_feature=0 0 0 0 0 0 51 0 0 51 0 0 0 51 51 51 51 9 23 20 51 5 4 0 3 0 4 5 3 0 2 9 2 9 13 34 0 3 0 13 5 0 9 51 9 0 51 0 51 51 0 2 8 4 9 3 0 5 52 20 51 2 9 2 3 3 51 20 20 20 42 0 4 52 0 2 9 2 0 4 51 9 0 2 3 2 13 5 3 2 5 3 3 3 15 5 2 5 2 51 51 0 9 52 21 9 15 2 3 51 52 4 13 52 3 4 9 0 3 9 5 8 4 9 51 13
split_gain=47928.7 8156.53 6205.93 2669.84 1218.15 1005.08 634.098 617.473 512.03 431.197 378.615 304.048 205.948 185.951 144.395 136.152 123.428 121.121 117.224 112.124 97.6185 120.351 92.0895 90.0348 82.3745 76.1554 74.4954 70.5354 69.7589 64.9452 62.6408 58.8942 58.3691 56.1055 54.5554 53.8712 53.6004 45.1615 42.0982 41.6137 39.8754 39.8293 39.7958 38.2308 33.6917 33.3569 32.1296 32.0476 31.6281 31.1932 30.5827 29.6179 38.1519 29.4632 28.5009 28.3985 27.5492 27.3329 26.6588 26.5634 26.5193 26.5164 25.8878 25.2924 23.8891 22.8904 22.3326 20.8196 20.8075 20.4925 20.405 19.6879 18.4861 17.8706 17.5485 17.1209 16.9325 16.8919 16.7374 16.1564 16.0413 15.8345 15.5958 15.3138 14.8281 14.4644 14.4556 14.0797 14.0402 14.0107 19.0832 18.2212 13.9793 13.6891 13.6616 13.6048 13.5183 13.4917 13.4486 13.2531 13.2229 13.1105 12.5141 12.2464 12.2157 11.8427 11.712 11.652 11.6064 11.5949 11.5373 11.3717 12.8082 11.367 11.1227 10.7066 10.5224 10.4696 10.4438 10.4042 10.3765 10.1438 11.6364 10.1367 9.89836 9.86873
threshold=0.25857207179069525 -0.76140317320823658 0.92562475800514232 -1.8644446134567259 -0.22980945557355878 1.5931261181831362 -1.6266171932220457 0.6417071819305421 -2.4532908201217647 -1.6768099665641782 -1.3345302343368528 2.4838461875915532 1.1865615248680117 -0.046731481328606599 -2.6432571411132808 -0.62440669536590565 -2.7890763282775874 -0.59409192204475392 0.68741388618946087 0.75566542148590099 -0.57838192582130421 -0.038872821256518357 0.38893203437328344 -2.743565440177917 -0.34016339480876917 0.14278686046600345 0.55366310477256786 -0.49493002891540522 -0.34016339480876917 2.0336811542510991 -2.875206738710403 -0.59409192204475392 -2.875206738710403 -0.59409192204475392 0.490547925233841 -0.57355887070298184 0.10581481456756593 -0.32028995454311365 -2.1886017322540279 -0.053391760215163224 -0.49493002891540522 2.6935738325119023 -0.59409192204475392 -2.4601935148239131 -1.4242570996284483 -0.43625192344188685 -1.6310911774635313 -1.5927572846412656 -3.139856100082397 -0.72587817907333363 0.39943531155586248 -2.875206738710403 0.92681878805160534 1.0278369784355166 -0.59409192204475392 -0.34016339480876917 0.53150871396064769 0.71400460600852977 0.85984674096107494 0.74245101213455211 0.42060077190399175 -2.875206738710403 -0.59409192204475392 -2.875206738710403 1.0985721647739413 -0.32933391630649561 -3.1655775308609004 0.66713714599609386 0.95111581683158886 0.657108634710312 1.0177296400070193 -0.37283059954643244 0.5413910746574403 0.83028420805931102 0.52079889178276073 0.13280968368053439 -0.59409192204475392 -2.875206738710403 -0.43625192344188685 0.47231228649616247 -0.69000038504600514 -1.4242570996284483 -0.0073672358412295571 -2.875206738710403 -0.32028995454311365 0.70235985517501842 4.4308079481124887 -0.55876475572586048 -0.32028995454311365 -2.875206738710403 0.054028499871492393 -0.31105926632881159 -0.37575684487819666 -0.31105926632881159 1.0000000180025095e-35 0.50354251265525829 0.82058724761009227 -0.49493002891540522 -2.875206738710403 -0.026454064995050427 -3.139856100082397 -1.5363425016403196 -0.59409192204475392 0.87969401478767406 0.83168169856071483 -0.59409192204475392 1.0000000180025095e-35 -2.875206738710403 -0.78931415081024159 -2.4129742383956905 0.88258665800094616 1.6106121540069582 -0.3644047006964683 0.88258665800094616 -1.137998044490814 0.33809791505336767 -3.4342249631881709 0.72813409566879284 -0.32028995454311365 -0.59409192204475392 -1.4915965199470518 0.3197344988584519 -0.075145430862903581 -0.59409192204475392 -0.91887611150741566 0.490547925233841
decision_type=2 2 2 2 2 2 2 2 2 2 2 2 2 2 2 2 2 2 2 2 2 2 2 2 2 2 2 2 2 2 2 2 2 2 2 2 2 2 2 2 2 2 2 2 2 2 2 2 2 2 2 2 2 2 2 2 2 2 2 2 2 2 2 2 2 2 2 2 2 2 2 2 2 2 2 2 2 2 2 2 2 2 2 2 2 2 2 2 2 2 2 2 2 2 2 2 2 2 2 2 2 2 2 2 2 2 2 2 2 2 2 2 2 2 2 2 2 2 2 2 2 2 2 2 2 2
left_child=1 3 7 8 9 12 16 18 23 14 28 29 26 33 48 45 66 49 19 42 58 63 44 37 46 57 81 35 62 79 104 78 94 65 97 -14 103 99 -26 71 59 -13 93 77 -9 76 109 -30 -3 110 -44 52 -36 72 -45 -23 102 64 61 117 -27 70 -8 67 82 80 -5 -22 -54 -66 124 -33 -37 101 -34 -65 -11 -18 -17 85 -6 -4 -15 -29 -63 -7 120 98 -85 90 -41 -91 106 -2 -21 -52 -61 -28 -55 -1 -39 -56 -20 -35 -16 -74 -46 -103 -58 -10 -12 -78 -113 -64 -25 -104 -42 -24 -62 -47 -43 122 -71 -111 -19 -117
right_child=2 4 5 6 13 11 10 22 24 15 17 41 27 25 30 31 43 20 56 32 21 55 40 114 38 60 34 83 47 -31 -32 39 74 36 51 53 -38 100 -40 89 116 86 50 54 92 119 -48 -49 -50 -51 95 -53 68 87 73 -57 108 -59 -60 96 118 84 113 75 69 -67 -68 -69 -70 121 -72 -73 105 -75 -76 -77 111 -79 -80 -81 -82 -83 -84 88 -86 -87 -88 -89 -90 91 -92 -93 -94 -95 -96 -97 -98 -99 -100 -101 -102 107 115 -105 -106 -107 -108 -109 -110 123 -112 112 -114 -115 -116 125 -118 -119 -120 -121 -122 -123 -124 -125 -126 -127
leaf_value=-0.050263904478103263 -0.0044490425805196829 -0.10127557850927318 0.010651819287240433 -0.09962939447981338 -0.016743237185283262 0.0303246788883649 -0.024284492369284965 0.0035237816759866765 -0.043236595117438971 -0.016418120954658486 -0.020128198027023512 0.044508030375057961 0.023404529320304041 -0.0028624640582195094 -0.029716510576635338 -0.012251446142909439 -0.045372951345193979 -0.015388931581664983 0.0061233080700128437 0.010897011423116039 -0.0046643101631784504 -0.011431986486076372 0.014806429549681433 -0.031903533306843535 -0.044761181684056461 0.0014822316738136228 0.022161164615390753 0.012829645138068672 -0.029145038098998384 0.038271587995392091 -0.016177637184484155 -0.0089096613805951085 0.0069909151600258401 -0.0042426460900388064 0.024645523203051474 0.024753611699822112 -0.00057755972917256646 -0.07826422095801297 -0.03679105916814563 0.0031697863870712552 -0.0010341646537002024 0.06515317945368275 0.0029552711469646871 -0.032169457907169623 0.0092266321223689746 -0.013448742852664997 -0.027148638560591833 -0.023802251746768116 -0.055115560686551414 -0.016939352169169065 0.0069909151600258401 0.024656722762633036 0.029989122123158674 0.036420397069347736 -0.027815019921134988 -0.016939352169169065 0.015573120426109364 -0.0028742378694362018 -0.016939352169169065 0.019510359429008774 0.0080799326111318046 -0.014592356875113278 -0.017900634356988181 -0.016091038537657743 0.0007660873551091356 -0.0060508010077705791 -0.057651271839598985 0.0045100138804699342 0.041682165118523316 0.018889331588177006 -0.0088170075362197682 -0.0067280658670400076 0.023892738998632167 -0.029342028091614649 0.010318014905565387 -0.006289724618061425 -0.013134946980711215 -0.030682917061488686 -0.0089096613805951085 0.03303184313866054 -0.0092643684765941186 0.01923974701300819 0.00016324085947440898 0.018968673971148931 -0.016939352169169065 0.019377831364420579 0.10203845535082234 0.027972927118271318 0.025486494276152034 -0.0041825805731530658 -0.0047382758580077136 -0.0067280658670400076 0.014426431596617363 0.0019379456923377851 0.016474800379824787 0.004628373779185806 0.024488670102866324 0.016582016653062595 0.03028867458080306 -0.0041083023309850981 -0.065646210619311418 -0.027695810552969453 0.0079896564139022713 -0.0060508010077705791 -0.043890210182495532 0.029222983499441066 0.013142981934186355 -0.02220619436816635 0.011589064561806806 -0.038832059740973951 -0.024054502658119543 -0.012666602883246419 -0.0052514811102694304 -0.021609569853300217 -0.049729726952496375 0.0096743209995339523 0.013421458397885595 0.01788172880195436 0.0033170478333262553 -0.0093551390164700217 0.053348538849351368 0.0041069712328202397 0.007088073533419348 -0.031717987673047517 -0.012042899918872217 0.01289150034859987
leaf_weight=348.57000303640962 1519.3600197136402 47.160000577569008 568.5200075507164 41.840000584721565 931.84001298248768 1437.6400166600943 3076.6700354777277 958.98001397401094 371.04000288248062 3516.2200450077653 8274.0301157645881 1598.4000220149755 5027.4400757700205 7424.4000915139914 1475.310013409704 8061.6301128827035 453.28000389039516 6141.580077521503 2646.4800377339125 1807.3200237005949 2588.6800290346146 3670.1300424076617 3499.9300555773079 101.160001039505 2417.1100276820362 11435.210144106299 9887.4401596337557 507.12000617384911 4375.0400585234165 6884.1400961503386 1190.3100135885179 20380.250282440335 7068.0800835192204 22139.020285375416 1294.0800186097622 3299.8000471591949 10253.320129320025 296.80000311136246 5580.6200648769736 1067.0800140947104 128.68000149726868 246.60000357031822 10423.410127986223 2841.2800299227238 3171.5200347155333 1829.8900237865746 2584.2300266139209 8080.4001101106405 213.04000194370747 6352.2100793607533 7797.5700973309577 5036.1200866699219 729.60001087188721 2352.2400388717651 3274.9600353986025 4480.0500633902848 2503.0000337064266 16230.3102135472 8073.6300994865596 1932.960029810667 2584.170030195266 7804.6400859802961 6711.8300735019147 668.00000777840614 4249.4200512692332 3236.7900490276515 176.92000159621239 811.0000081807375 848.28001071512699 300.78000424057245 2196.7700264044106 9432.2501272000372 1156.2000184804201 2742.3200295269489 4493.2900516577065 1350.5200147628784 13319.040166392922 370.80000308156013 6515.9600816071033 15177.79022250697 3175.6500379778445 12201.180155955255 9979.8501249887049 1693.4400151818991 7452.7401043251157 395.16000458598137 17.240000337362289 1358.2400187700987 1677.0000207573175 8525.810097489506 2665.000038176775 5959.9800887778401 9821.3501277677715 1397.9200195074081 2866.520030349493 6724.3600892871618 2217.1700440831482 1243.5600154399872 1547.6900256462395 16.720000237226486 1262.8600142970681 1360.04001326859 3878.4400466680527 5225.8500700779259 176.48000156879425 16550.750265177339 4896.7200436890125 3672.6800390481949 7024.8501042462885 714.88000699877739 2487.8400318175554 1308.3000140711665 1058.6200120076537 2125.8400224894285 1747.7200182974339 8056.1901078633964 4534.8200533762574 14429.560213461518 2087.2300289981067 10728.90013781935 1467.4400190711021 576.88000619411469 694.56000763177872 2034.7600199133158 3526.8100405968726 3427.1200472861528
leaf_count=406 1986 63 730 56 1232 1804 3852 1285 426 4572 10911 2084 6741 9484 1776 10684 543 7884 3505 2317 3209 4626 4766 121 3108 14691 13491 635 5788 9009 1515 27084 8970 28864 1738 4376 13285 370 7140 1415 161 326 13318 3547 3908 2400 3184 10755 265 8179 9980 7074 978 3266 4103 5990 3262 21067 10514 2638 3212 9688 8300 857 5375 4461 210 982 1075 402 2821 12417 1590 3433 5621 1663 17225 457 8399 20055 3981 15648 12791 2017 9969 485 25 1793 2167 10683 3574 8054 12738 1877 3511 8728 3261 1592 2134 21 1612 1665 4866 6902 210 22594 5795 4563 9392 865 3218 1646 1350 2638 2172 10503 5734 19142 2763 13940 1872 721 861 2456 4449 4490
internal_value=-5.00766e-06 -0.0121904 0.0184755 -0.0223221 -0.00591374 0.0280314 -0.0193148 0.0107961 -0.0404193 -0.00989655 -0.017735 0.0361333 0.0247376 -0.00205182 -0.0282368 -0.00929328 -0.0288593 -0.0157645 0.00790079 0.00630193 -0.0144933 -0.0108874 0.0153449 -0.0567352 -0.0359216 -0.000117237 0.0218194 0.0273761 -0.0230607 0.034157 -0.0249527 -0.00794008 0.00960504 -0.00444234 0.0238039 0.0281657 -0.00366152 -0.0643492 -0.0392057 -0.00709462 0.0172326 0.0503001 0.00437679 -0.0283006 0.0126656 -0.0119602 -0.0313106 -0.0256815 -0.0638567 -0.0193854 0.00502301 0.0269869 0.0310613 0.029076 -0.0276738 -0.014727 0.0104608 -0.00130002 -0.0158829 0.0181212 0.0027798 -0.0149588 -0.0203185 -0.00510916 -0.000199654 -0.00844009 -0.0661196 -0.00247361 0.036301 0.00257243 -0.0131804 -0.0082455 0.0282304 -0.0265146 0.00769673 -0.00954217 -0.0132722 -0.0388143 -0.0107247 0.0324894 -0.0109659 0.0188587 -0.00112728 0.0209966 -0.0163406 0.0279791 0.0556159 0.0324473 0.0222198 -0.00521063 -0.00247561 -0.00591471 0.0131552 -0.00114712 0.0143218 0.00650653 0.0217382 0.0215399 0.0339967 -0.0481819 -0.0680992 -0.0253235 0.0093081 -0.0048168 -0.0312595 0.0288766 0.0116055 -0.0236959 0.0126377 -0.0347457 -0.0210385 -0.0125657 -0.00935587 -0.0189346 -0.0487749 0.009856 0.0130214 0.0172826 0.00595406 -0.00995302 0.0550868 0.00744786 0.0106747 -0.0335828 -0.0141703 0.0106359
internal_weight=532084 320656 211429 122659 197997 94203.1 105183 117226 17476.5 97471.2 90248.4 27224.4 66978.7 100525 3102.3 94368.9 14934.1 65878.6 71633.9 44097.8 48764.6 13568.4 45591.7 3773.83 13702.6 55562.8 31808.8 35169.9 24369.8 23894.7 2842.1 62608 16235.2 44962.5 19039.1 31292.4 37618.2 1924.95 7997.73 48030.4 26743.1 3329.68 27862.6 14715.4 18848.6 31761 5704.91 12455.4 260.2 17114.1 24945.3 7908.08 2871.96 26264.9 13891.3 8150.18 27536.1 39456.2 35196.2 22079.6 16106.6 27122.5 11914.3 5418.2 23225.9 7344.28 218.76 3399.68 1577.88 5821.64 11865.2 29812.5 21006.8 11050 11561.4 2018.52 19202.2 824.08 14577.6 17010.6 4107.49 12769.7 17404.3 3877.56 15257.4 1832.8 1731.28 5258.17 3370.44 18217.9 3732.08 14485.8 17889.6 2917.28 4673.84 14521.9 4150.13 11131 3899.93 365.29 1559.66 8307.68 18008.2 27364.9 1651.79 17707 8068.24 5032.72 9527.85 3120.68 10761.9 15686 2366.92 8837.67 1848.88 15361.8 4663.5 17929.5 4671.4 12558.8 1714.04 1572.22 995.34 2749.64 9668.39 11483.3
internal_count=691168 414115 277053 156751 257364 125299 134870 151754 21881 127272 116293 35660 89639 130092 3829 123443 18577 84960 92326 56308 62652 17327 59428 4702 17179 71367 42326 47313 31333 31353 3501 82310 20419 58725 25948 42494 49051 2409 10248 63227 35702 4307 35889 18311 23726 41133 6931 16543 328 22308 32026 10865 3791 35753 17311 10616 36018 50701 45325 29807 20666 34811 14790 6711 29634 9674 266 4191 2053 7359 15154 39501 28560 13764 14591 2520 24793 1000 19083 22344 5213 16378 22275 4819 19657 2289 2223 7193 4184 23726 4989 18737 22441 3863 5828 18708 5899 15083 5400 427 1982 10331 23364 35766 1986 24184 9703 6228 12654 3747 14129 20221 2996 10938 2293 19859 5895 23908 5975 16340 2198 1984 1263 3321 12333 14993
is_linear=0
shrinkage=0.05


Tree=3
num_leaves=127
num_cat=0
split_feature=0 0 0 0 0 0 0 51 0 51 0 0 0 51 51 51 0 51 51 4 5 0 0 4 5 6 51 6 12 4 0 3 13 2 0 3 13 3 2 0 3 20 2 9 0 0 4 0 51 9 0 9 5 9 3 51 5 0 5 51 51 2 13 2 6 6 5 52 53 9 9 3 6 9 13 2 9 5 6 6 2 0 15 20 2 4 2 9 9 51 6 13 2 3 5 3 9 6 6 42 2 51 13 13 51 6 9 52 9 42 2 9 3 6 5 51 2 5 0 32 52 51 9 4 3 3
split_gain=43280.9 7919.52 4988.17 2543.83 1139.1 857.753 637.228 533.748 499.689 307.59 293.089 233.406 204.112 183.826 129.241 124.206 121.871 119.139 116.911 89.9735 85.4355 81.2811 77.6484 73.0965 69.8414 69.153 68.9969 64.2346 62.6807 60.0886 56.6343 55.1749 52.4399 50.4603 48.568 43.9722 41.0418 40.9008 40.2891 38.533 37.7755 38.1696 37.4644 37.3438 37.4732 37.0299 36.3359 35.9731 34.3245 31.0883 30.8824 30.4865 29.9452 29.5317 26.8571 26.7299 26.5043 25.5638 25.3538 25.247 25.2224 24.1587 23.6606 28.9207 23.3297 22.1384 21.8827 21.8713 21.6968 20.3808 20.2814 20.0991 19.854 19.6898 19.5493 19.7872 19.2027 18.5102 18.4117 18.3285 18.223 18.1651 17.1788 18.3971 17.1718 17.1354 19.3508 17.113 16.6637 16.2717 16.1313 15.4518 15.4123 15.808 15.3277 15.3138 15.2191 15.0575 14.9327 18.4262 14.792 14.6168 14.5668 13.876 13.7847 13.7839 13.7559 13.5383 13.509 13.2468 12.8794 12.7709 12.7416 12.6233 12.4192 12.3718 11.8986 11.8238 11.8055 11.5974 11.5192 11.4787 11.4372 11.2102 12.8736 10.9283
threshold=0.31126245856285101 -0.71603286266326893 0.95909672975540172 -1.6840520501136778 -0.091690823435783372 1.716870188713074 -2.4532908201217647 -1.6211367845535276 0.69692125916481029 -1.7773585915565489 -1.2006938457489011 2.4838461875915532 1.2046031951904299 -0.46689073741435999 -0.046731481328606599 -0.57838192582130421 -2.0591499805450435 -2.725871086120605 -2.725871086120605 -0.44760526716709131 -0.038872821256518357 -2.743565440177917 -0.28984431922435755 0.38893203437328344 -0.49493002891540522 0.48145854473114019 0.42060077190399175 -0.17846719920635221 -1.3210228979587553 0.78076788783073436 0.55416709184646618 -0.42385523021221155 1.1780924797058108 -2.875206738710403 -0.41707381606101984 -0.34016339480876917 0.89108458161354076 -0.34016339480876917 0.30589167773723608 2.0336811542510991 1.0985721647739413 0.7570013999938966 -2.875206738710403 -0.59409192204475392 0.14278686046600345 -1.3984212279319761 1.0752448439598086 2.6935738325119023 0.42060077190399175 -0.59409192204475392 0.18897564709186557 -0.59409192204475392 -0.12536294758319852 -1.4242570996284483 -0.32028995454311365 -3.139856100082397 -0.72910690307617176 -1.2192624211311338 -0.019776982255280014 -2.2070403099060054 -3.1655775308609004 -2.875206738710403 -0.053391760215163224 -2.875206738710403 0.59589564800262462 0.3092725425958634 -0.51635107398033131 0.82233387231826793 -0.20087137818336484 -0.59409192204475392 -0.59409192204475392 -0.32933391630649561 0.38744048774242407 -0.59409192204475392 -1.7142013907432554 -2.875206738710403 -1.4242570996284483 -0.48574109375476832 0.74403309822082531 -0.7162543237209319 -2.875206738710403 1.5144609212875368 -2.7938838452100749 0.657108634710312 1.7976108193397524 0.65108665823936474 -2.875206738710403 -0.59409192204475392 -0.59409192204475392 -1.6768099665641782 0.058384658768773086 1.0000000180025095e-35 -2.875206738710403 -0.32028995454311365 -0.49493002891540522 -0.32933391630649561 -0.59409192204475392 0.59589564800262462 0.74403309822082531 1.647357225418091 -2.875206738710403 -1.7773585915565489 -0.3644047006964683 1.0000000180025095e-35 -0.36912637948989863 0.74403309822082531 -1.4242570996284483 0.85984674096107494 -1.4242570996284483 2.4351509809494023 -2.875206738710403 -0.59409192204475392 -0.32028995454311365 0.38744048774242407 0.4811596423387528 -3.139856100082397 -2.875206738710403 -0.52746930718421925 -1.8644446134567259 -0.28227816522121424 0.58424371480941784 -0.026454064995050427 -1.4242570996284483 0.47231228649616247 -0.42385523021221155 -0.32933391630649561
decision_type=2 2 2 2 2 2 2 2 2 2 2 2 2 2 2 2 2 2 2 2 2 2 2 2 2 2 2 2 2 2 2 2 2 2 2 2 2 2 2 2 2 2 2 2 2 2 2 2 2 2 2 2 2 2 2 2 2 2 2 2 2 2 2 2 2 2 2 2 2 2 2 2 2 2 2 2 2 2 2 2 2 2 2 2 2 2 2 2 2 2 2 2 2 2 2 2 2 2 2 2 2 2 2 2 2 2 2 2 2 2 2 2 2 2 2 2 2 2 2 2 2 2 2 2 2 2
left_child=1 3 8 6 9 12 21 17 19 18 35 39 29 34 43 27 31 55 60 80 52 37 49 53 25 46 50 74 58 56 40 101 77 59 62 69 94 121 118 123 48 114 -20 71 -45 110 81 -13 68 -15 72 -29 -17 -10 -28 -5 -4 -35 -22 -19 -3 78 111 97 -34 -54 125 102 108 -9 -36 -6 -16 -24 75 -12 -27 90 119 -61 -2 -14 -74 -84 -38 -78 -87 -76 -30 -40 -31 -90 -26 -94 -25 -70 -82 -64 -43 -100 -85 -8 -51 -80 120 -75 -58 -72 -21 -49 -37 -11 113 -55 -42 -39 -107 -48 -18 -53 -71 -1 -68 124 -7 -32
right_child=2 4 5 7 14 11 16 10 23 13 15 47 24 22 26 20 38 33 42 30 28 -23 73 36 92 76 54 51 88 32 66 -33 64 57 70 45 84 115 89 -41 41 98 -44 44 -46 -47 117 109 -50 67 -52 61 65 112 -56 -57 106 -59 -60 79 -62 -63 63 -65 -66 -67 122 -69 95 104 107 -73 82 105 87 -77 85 -79 103 -81 96 -83 83 100 -86 86 -88 -89 91 -91 -92 -93 93 -95 -96 -97 -98 -99 99 -101 -102 -103 -104 -105 -106 116 -108 -109 -110 -111 -112 -113 -114 -115 -116 -117 -118 -119 -120 -121 -122 -123 -124 -125 -126 -127
leaf_value=-0.046996474069482402 -0.0016855653018458502 -0.10615921296402026 0.021085849809605126 -0.084445896760569322 -0.0096727474321276433 0.020204834067151223 -0.03478999753017599 -0.021045318064236696 0.0032533493894430937 -0.015909618680421702 -0.03288721738918985 0.042284020233774526 0.023660816564156025 -0.01001905085935648 -0.0015791178450516299 -0.010444103421097348 -0.033141400066235033 -0.037823457622182081 -0.030925110199450247 -0.00049312444019334657 -0.014198530483662902 -0.046338457283018969 -0.0068166694725635621 0.016751686414614744 0.012189425204576998 0.022035688567630093 0.0077936040079121596 -0.017709396207286041 -0.014719000144357508 0.021856946952697354 0.014833742338741018 -0.039813523030006771 0.026953020265577401 -0.025699217537663036 -0.012038148270304815 -0.013669486510170626 0.01907533408180612 -0.074324149798552869 -0.029461350622655303 0.036358288525225851 0.0091312339087369129 0.010932673917273296 -0.015049674174782639 -0.003474012714445595 0.00038700650144630171 -0.019502081563039786 0.030980444304517157 0.050620320617055119 0.0089904396866446537 -0.0071510642488631778 0.0025910456131703293 -0.0087852373575684779 -0.005873635772373393 0.0082965742485527124 0.0024953139959068308 -0.048977824702683644 0.008376239795987955 -0.019820058060444349 -0.023073333856661507 -0.031692166524496024 -0.056142251658241521 -0.014436397963078818 -0.0060866457405025125 -0.010960488537700168 0.037156388413739735 0.0026071051414559964 0.0030768961617847644 -0.0083915075438405554 -0.00059155098747908986 -0.01603917814540325 -0.0072137150444578401 -0.0044740868952594156 -0.0032093690613400035 -0.0039967122275385248 -0.019319552246716408 -0.020678522060517793 0.028476332864222954 0.016167517524700869 -0.010811870670184786 -0.02346229022852242 -0.0016868400060847941 0.027558055177835845 0.00077745264198264118 0.010931498261245089 0.024842141562261916 0.035405570862448596 0.030046224296540105 -0.016140954270249173 -0.011575072066005356 -0.023536283670035379 0.026715393076907852 -0.0066062877976566367 0.018288391838804603 0.024974414387615877 0.012988627477302256 0.0054003580669267854 0.005590733290029461 0.0059177883041139764 0.01469879938952702 0.029839365219143401 0.0034090929627946021 -0.027427186478241189 -0.0046183443002147662 -0.0042562036354604421 -0.010931085680026075 0.0040041979969287914 0.017745292423185548 -0.0099560846263031383 0.007087177124384037 0.062415734271128898 -0.02454056003573131 -0.012255326066907208 0.014723804094763199 0.012727793495536427 0.0044084356381887306 -0.062192177492822333 -0.0024973216472230389 0.022692735249336071 -0.029270711018914639 -0.014435022406492382 -0.018845939368075205 -0.0039144795267050019 0.010231847919322065 0.032125159037090435 0.031116608759584097 0.011450101904370796
leaf_weight=316.57000291720033 1355.68001742661 30.960000410676003 10181.970153022557 76.760001108050346 2881.2900351323187 459.80000439286232 1341.3200128376484 3550.0500403530896 768.30001129955053 3011.6800378262997 421.64000459015369 1598.4000220149755 13370.550234016031 9652.2501325495541 18101.02023575455 3110.4700338803232 3685.5200417041779 976.16000829637051 872.87000791355968 624.72000923752785 1435.0500169582665 1848.8800193369389 5544.7200694233179 15175.720226228237 507.12000617384911 711.52001015841961 4535.4100525267422 3161.7700469531119 2605.7600364983082 6291.3601041734219 4600.2400645017624 4970.8900564797223 991.04001589119434 6312.1000668480992 3482.5400464609265 289.44000288844109 4598.2900715209544 297.80000311136246 1737.2000167965889 6884.1400961503386 7578.7700961865485 1942.8000292479992 655.56000728905201 18062.870235960931 9633.2901191301644 10075.600138470531 3413.890058029443 1410.7600174844265 11998.860164009035 11971.540166385472 10705.980133451521 1391.4100172407925 3686.9600428640842 1033.5600132197142 5070.3100729398429 203.56000171601772 416.68000602722168 2661.1400289610028 1866.9600219130516 1743.0400182157755 176.96000169217587 6701.390084605664 1015.0400124192238 7032.4000902324915 948.52001076936722 970.88001026213169 588.52000798285007 7942.480111554265 2153.4800252914429 6941.5200747102499 15227.890187818557 2141.8200324848294 1968.4000259190798 19827.650271225721 5916.9800757542253 541.57000618055463 5631.0800718814135 1064.4400119185448 1577.7200165688992 1147.9600111842155 819.68001295626163 3943.2100631929934 7761.8000901788473 911.96000935137272 1830.7600385993719 2899.8400387763977 4295.120059683919 15461.870192822069 5141.8600698038936 3716.4400419443846 2406.2400364428759 2264.7600284069777 1837.2000167220831 1759.6000219285488 3336.1800413504243 2108.3200310915709 5732.0100691355765 350.3600045889616 3077.5200299173594 216.0000025331974 1200.320013910532 1450.8800145685673 10849.30015193671 1663.3600184321404 970.16001160442829 1011.5600091665983 8078.9701021648943 3337.6500403471291 9579.3601141124964 320.52000549435616 7364.770102519542 12126.740149520338 7555.0300976298749 5168.5200482010841 1714.2800226509571 1293.8600144162774 2305.0800246298313 514.28000900149345 4640.8200528696179 2685.9300359077752 2668.4800292998552 16.720000237226486 12215.650144834071 10297.420146293938 703.56000949442387 5071.060079716146
leaf_count=372 1746 44 13643 103 3653 547 1605 4423 1034 3919 548 2084 18861 12642 23533 3874 4705 1168 1050 840 1839 2293 7123 20194 635 937 5636 4250 3465 8676 6061 6322 1364 7857 4602 352 6252 371 2106 9009 9715 2624 820 23611 12475 13349 4797 1777 15672 15796 13749 1819 4608 1341 6729 243 546 3334 2363 2152 222 8692 1338 9207 1158 1187 782 10563 2726 8568 19669 2968 2542 26164 7668 696 7109 1328 1934 1392 1153 5420 9700 1117 2744 3755 5605 19915 6777 4657 3253 2926 2195 2276 4273 2853 7361 462 3681 266 1494 1770 14274 2071 1225 1194 10341 4305 12052 446 9890 15750 9782 6159 2202 1645 2817 731 5953 3526 3330 21 15383 13459 917 6871
internal_value=-9.01431e-06 -0.0111548 0.018236 -0.0207102 -0.0048817 0.0269153 -0.0349447 -0.0172968 0.0111151 -0.00807202 -0.0159572 0.0355974 0.0241978 -0.00775557 -0.00040511 -0.0139154 -0.0316212 -0.0267351 -0.0289547 0.00861844 -0.0108143 -0.0539025 -0.00612942 0.0156301 0.0265985 0.0273277 0.00118706 -0.0155691 -0.013246 0.0211242 0.00924508 -0.0366403 0.0239387 -0.0260263 -0.0102205 -0.0198405 0.0172735 -0.0611372 -0.0287908 0.0333818 0.00813826 0.0101879 -0.0241335 -0.00285072 -0.00213093 -0.0215024 0.0255416 0.0477893 0.00701245 -0.00754171 0.000286282 -0.0132672 -0.00664466 0.0128069 0.00499801 -0.0589735 0.0193594 -0.0239586 -0.0192233 -0.0308155 -0.0640864 -0.0122639 -0.0118011 -0.00966739 0.0314665 -0.00410466 0.0112632 -0.00676396 0.00537094 -0.0177535 -0.0085325 -0.00681725 -0.000537654 -0.0041395 -0.0173384 -0.0243353 0.0301276 0.0224395 -0.0102722 -0.0284352 0.00358741 0.0245502 0.00105378 0.00190439 0.0207219 0.0305744 0.0322116 -0.0170218 -0.0112725 -0.0254296 0.0232046 -0.0100575 0.0204124 0.0215667 0.0160745 0.00237206 0.00467936 -0.00300059 0.0136042 0.015702 0.00604073 -0.0309771 -0.00594745 -0.00745132 -0.0166466 -0.00349764 0.0172874 -0.00787402 0.0066226 0.0528417 -0.024132 -0.0129837 0.0133398 0.011651 0.00826113 -0.0645105 -0.000512272 0.0299027 -0.0309884 -0.0125109 -0.0172218 -0.0448683 0.00990364 0.0315904 0.0268292 0.0130614
internal_weight=532084 330304 201781 130904 199400 90937.2 25316.9 105587 110843 116425 92466.4 21674.6 69262.6 114689 82974.5 60606.3 21543.1 13120.7 1736.35 71377 21082.7 3773.83 69104.6 39466.4 38883.4 34779.5 50255.2 39523.6 13314.4 30379.2 63469.6 7763.09 11701.6 12840.4 45584.3 31860 24941 1924.95 13780 18344.9 40994.1 14529.4 1528.43 32719.3 27696.2 17729.8 21241.9 3329.68 26464.7 40415.6 40649.5 17181.6 7768.31 14525.4 9605.72 280.32 18677.6 8973.24 3302.01 3867.16 207.92 14019.8 23536.2 8397.8 1939.56 4657.84 22475.5 30763.3 14465.9 14130.2 22048.1 5023.11 29943.5 28689 22342.1 963.21 13537.6 9762.04 7318.42 2891 7907.37 17313.8 11842.5 9874.08 6429.05 12826 7194.96 21378.9 10012.4 5453.64 8697.6 7406.62 4103.92 3596.8 18511.9 4261.8 6551.69 1365.4 5236.32 3293.52 2112.28 2792.2 22820.8 3241.08 10580.2 23144.3 8495.65 18565.5 10204.1 1731.28 7654.21 15138.4 13757.1 6202.08 9293.05 1591.66 3316.64 3928.17 8326.34 4077.34 9610 333.29 12804.2 11460.8 1163.36 9671.3
internal_count=691168 426532 264636 167364 259168 120869 31820 135544 143767 151961 119295 28239 92630 149825 107207 78158 27118 16249 2136 91988 27039 4702 90573 51779 52321 47215 64500 51119 17370 40309 81728 9697 15779 15903 59252 41137 33463 2409 17421 23932 52631 18488 1870 42707 36086 23591 29809 4307 34143 53275 52135 22292 9669 18316 12365 346 24530 11191 4202 4712 266 18042 30676 11007 2522 5795 29097 40633 18471 17546 28576 6621 38386 37298 28827 1244 17406 13257 9350 3544 10260 24281 14853 12311 8996 16469 9360 27583 13168 6763 11929 9703 5106 4471 24467 5579 8514 1800 6571 3947 2611 3375 30070 4005 13123 30175 10887 23974 12892 2223 10242 19669 17282 7500 11917 2016 4011 5528 10658 5345 11898 393 16165 14923 1464 12932
is_linear=0
shrinkage=0.05


Tree=4
num_leaves=127
num_cat=0
split_feature=0 0 0 0 0 0 0 51 0 51 0 0 0 51 51 51 51 9 51 4 0 5 5 0 3 0 4 5 53 20 3 2 53 5 9 53 0 0 53 3 51 0 5 0 0 53 4 53 9 53 2 2 53 9 0 51 51 9 9 51 5 51 2 4 9 3 13 0 2 9 51 53 3 2 3 5 51 28 4 0 0 0 51 9 5 3 53 5 21 13 9 5 2 3 3 4 3 0 0 4 54 2 21 21 13 52 3 51 51 3 2 53 3 3 3 4 32 51 52 9 45 52 0 28 53 13
split_gain=39072.1 6663.56 5057.37 2095.8 1083.05 821.241 502.067 500.221 416.955 343.795 288.089 235.753 181.201 151.832 129.618 121.632 101.396 99.052 95.7053 79.4167 78.5921 92.9772 75.1418 73.3883 67.8171 63.1927 61.9935 59.7655 64.5285 58.4167 56.8591 51.9435 50.7339 51.8699 50.0908 47.9238 46.5523 46.4576 39.1323 36.9016 35.9798 35.8533 33.9487 33.3876 32.4705 31.8855 31.5302 30.9203 30.0259 29.0784 28.76 28.6088 27.9356 27.1023 26.8751 26.5357 26.4936 26.375 26.1022 25.0243 22.9855 21.7875 21.785 25.6709 21.5947 21.323 20.0301 19.9799 19.8353 19.343 18.6664 18.4968 19.2907 17.9718 30.4619 17.925 17.4491 16.8978 17.2208 16.8532 16.5022 16.0245 15.7408 15.5587 15.2878 15.0772 14.748 14.2718 13.5133 13.2174 13.1807 13.0281 12.9179 12.7301 12.5272 12.2108 12.3679 11.8713 11.7069 11.0899 11.0833 11.0599 11.0461 11.0207 10.9301 10.8904 10.8665 10.7746 10.755 10.738 10.6327 11.603 10.6169 10.5651 10.5388 12.3762 10.4626 10.2776 10.2189 10.0156 9.98389 9.9774 9.94356 9.89828 9.87545 9.70596
threshold=0.25857207179069525 -0.81353837251663197 0.92562475800514232 -1.8644446134567259 -0.22980945557355878 1.6350423693656924 0.63259053230285656 -1.6266171932220457 -2.4532908201217647 -1.6768099665641782 -1.3345302343368528 2.4838461875915532 1.1865615248680117 -0.046731481328606599 -0.62440669536590565 -2.6432571411132808 -2.7890763282775874 -0.59409192204475392 0.037274617701768882 0.38893203437328344 -0.86171713471412648 -0.029673011042177674 0.47056695818901068 -2.743565440177917 -0.34016339480876917 0.11474365368485452 0.55366310477256786 -0.49493002891540522 -0.4814585000276565 0.65586358308792125 -0.34016339480876917 -2.875206738710403 -0.30927257239818567 -0.53834268450736988 -0.59409192204475392 -0.74403312802314747 2.0336811542510991 0.059167429804801948 0.15048785507678988 -0.32028995454311365 -0.81806331872940052 -2.1886017322540279 -0.49493002891540522 -0.43625192344188685 2.6935738325119023 0.52871182560920726 1.0278369784355166 -0.30927257239818567 -0.59409192204475392 -0.59589567780494679 -2.875206738710403 -2.875206738710403 -0.30927257239818567 -0.59409192204475392 -1.562762916088104 -3.139856100082397 -1.6310911774635313 -1.4242570996284483 -0.59409192204475392 0.42060077190399175 -1.3907949924468992 -0.72587817907333363 -2.875206738710403 0.75470247864723217 -0.59409192204475392 -0.34016339480876917 -1.0000000180025095e-35 0.41701526939868933 -2.875206738710403 -0.59409192204475392 -3.1655775308609004 -0.38744047284126276 -0.32028995454311365 -2.875206738710403 -0.31105926632881159 -0.66048577427864064 -2.3339686393737789 1.051699757575989 -0.031744802370667451 -0.39021645486354822 -1.5363425016403196 -0.43625192344188685 -0.46689073741435999 -0.59409192204475392 -0.52746930718421925 -0.32933391630649561 -0.74403312802314747 0.92212387919425975 1.0186703205108645 4.4308079481124887 -1.4242570996284483 -0.72910690307617176 -2.875206738710403 -0.32028995454311365 -0.32028995454311365 0.47231228649616247 -0.43693001568317408 -1.4830479621887205 0.79821819067001354 1.6106121540069582 1.0000000180025095e-35 -2.875206738710403 0.83168169856071483 1.4433396458625796 -1.0794232487678526 0.85984674096107494 -0.39316971600055689 -3.139856100082397 -0.026454064995050427 -0.32933391630649561 -2.875206738710403 0.39395205676555639 -0.32028995454311365 -0.32028995454311365 -0.2791739404201507 0.62390533089637767 -0.42635808885097498 -2.4129742383956905 0.88258665800094616 -0.59409192204475392 0.27251157909631735 0.88258665800094616 0.52079889178276073 0.65182617306709301 -0.058384696021676057 1.1780924797058108
decision_type=2 2 2 2 2 2 2 2 2 2 2 2 2 2 2 2 2 2 2 2 2 2 2 2 2 2 2 2 2 2 2 2 2 2 2 2 2 2 2 2 2 2 2 2 2 2 2 2 2 2 2 2 2 2 2 2 2 2 2 2 2 2 2 2 2 2 2 2 2 2 2 2 2 2 2 2 2 2 2 2 2 2 2 2 2 2 2 2 2 2 2 2 2 2 2 2 2 2 2 2 2 2 2 2 2 2 2 2 2 2 2 2 2 2 2 2 2 2 2 2 2 2 2 2 2 2
left_child=1 3 6 8 9 12 18 16 23 15 30 36 26 37 43 55 70 61 53 48 35 52 57 39 56 49 90 28 62 123 64 102 33 51 81 66 95 69 73 108 -37 -26 47 83 -13 97 100 91 93 68 76 75 -22 85 -32 -3 117 -20 106 -27 -59 121 63 -14 -9 -42 -19 -62 77 109 -5 120 -73 86 -75 -28 -47 78 -15 -40 -52 -16 -54 -11 -65 -2 88 -51 -36 -46 -4 -21 -29 -8 119 96 -7 -18 -50 124 -30 -31 -17 -69 -101 -71 -39 -41 -1 -6 111 -67 -25 -61 115 -49 -66 -10 -60 -94 -55 -12 -103 -24 -85 -118
right_child=2 4 5 7 13 11 19 10 24 14 17 44 27 25 34 31 45 20 22 42 21 -23 29 112 41 59 32 92 46 101 54 -33 -34 -35 38 40 -38 58 79 107 65 -43 -44 -45 89 50 -48 114 98 87 80 -53 82 71 -56 -57 -58 60 118 113 67 -63 -64 84 116 110 -68 103 -70 105 -72 72 -74 74 -76 -77 -78 -79 -80 -81 -82 -83 -84 99 -86 -87 -88 -89 -90 -91 -92 -93 94 -95 -96 -97 -98 -99 -100 104 -102 122 -104 -105 -106 -107 -108 -109 -110 -111 -112 -113 -114 -115 -116 -117 125 -119 -120 -121 -122 -123 -124 -125 -126 -127
leaf_value=-0.045343511486771126 -0.0069548789007690161 -0.091920626174051029 0.0095065609489459815 -0.090704866864799727 -0.010449829774074198 0.019380447850456742 0.00098776646623384488 -0.021981106931479161 -0.03934629820502919 -0.015005549818550552 -0.01831240281385749 0.040171141288336348 0.02798490340600256 0.011297243046558304 -0.011219942017141826 -0.026704866363054709 -0.025326603018250272 -0.012313994071941989 0.0032975978713719184 0.021406840620673131 0.0041536225435029866 -0.015496712411909076 0.0042319891547629458 -0.037383177716457369 -0.040534195409958673 0.0011291198264114265 0.039060134437240872 0.011581153493116196 0.023555778503588753 0.011586232135173881 -0.026004472093979027 -0.015142293942581748 0.019695934207744934 0.017986513379711175 0.0088202943839487766 -0.015496712411909076 0.03454063760655008 -0.0093472117757713909 -0.008169008152063088 -0.070660421927561681 -0.010438372449587828 -0.033180353389223066 0.01167559497615411 -0.0090196160809753925 0.049700777267455018 -0.041463237901895419 0.027542859202083627 0.014876162676838162 0.010842178101395525 -0.0018245018874781392 -0.028130470001347094 0.024543726986957622 -0.015496712411909076 0.0081490049810419209 -0.021254382387362197 -0.049671361640571558 -0.024464505153395755 0.016163733973477947 -0.00043905096649842824 0.0073664928338338922 0.0077004347982218254 -0.015496712411909076 0.026312910650342903 0.036713855268607438 -0.015150831459170948 -0.0080871506361199011 -0.0061999831505060166 0.010513300102274366 -0.00083716028401510385 -0.0041076729905659007 -0.052308464776048516 0.00052768286075027349 0.0049429245852483988 -0.0034647998956763831 -0.0080017222800667972 0.028949498280225222 -0.03026008061265606 0.00040043890538219546 0.0036723726184448809 -0.0059145042214175762 -0.022970351618520683 -0.008169008152063088 -0.0045096316057013607 -0.010667222836813333 0.026240821124688386 0.00052768286075027349 -0.0040338490587268445 -0.0057594878670743747 -0.0013622257082939349 0.094402353314201437 0.017342526361300344 0.016012868366087809 0.0065832893682578747 0.0083378809400217746 0.023163645778334317 0.03004723776470198 0.028693573292538591 -0.020647512663457934 0.013424612518888775 -0.013307280120142033 0.020476112242121296 0.0060475567053509191 -0.040161608151652893 0.006415929944702115 -0.007114517034750422 -0.0063850929630412979 -0.0038261088415501481 -0.059259349318449672 -0.0037298009115395887 -0.0063850929630412979 -0.015496712411909076 -0.015051313630339526 -0.046358960995372601 0.002795305512749602 0.014336904196830627 0.0194065206325265 -0.018961165554508407 -0.03027098245548053 -0.0038261088415501481 0.018515720122220514 0.0039851092655044437 -0.022054797570796536 0.010144778296945343 0.0011541300080690755 -0.01322084913091243 -0.0029975830750342712
leaf_weight=348.57000303640962 1020.120015218854 47.160000577569008 568.5200075507164 41.840000584721565 2512.9200319200754 576.12000541388988 970.24001234769821 3076.6700354777277 371.04000288248062 4182.9100537411869 7816.9401095584035 1598.4000220149755 3778.7600518763065 1108.8000115901232 8717.1901208870113 1475.310013409704 2536.920025318861 3055.3600344210863 1784.3200270086527 3518.7200577557087 917.20000848174095 1538.9200173914433 8395.7601115703583 486.20000439882278 2417.1100276820362 14180.800178557634 712.88000936806202 507.12000617384911 12121.030219580978 2475.6000288277864 5097.800068706274 1438.6000161021948 12790.360207274556 1788.6800202280283 522.12000539898872 20396.700258918107 6884.1400961503386 1523.5300183929503 20856.850283656269 296.80000311136246 6193.4900683499873 5580.6200648769736 4903.1000576987863 12558.790161605924 1714.0400226414204 438.24000369012356 4524.5700749643147 3381.2000456899405 10948.840128287673 23734.25031395629 3596.7200394123793 2515.9600454419851 343.0400039255619 2680.7600248008966 7357.640099927783 213.8400019556284 2584.2300266139209 1263.8100195862353 11568.330145064741 2693.2500319071114 12573.770160380751 5616.4100704975426 6198.8800767213106 1885.4000271558762 3925.1600403040648 1164.4800139963627 2399.9200267642736 20214.540271915495 6058.2400684505701 19020.250247422606 176.12000158429146 2192.8400261998177 2875.6200375631452 8285.1200968623161 6696.8200998976827 1231.2000196278095 1948.2800208330154 1949.6000199913979 891.04001024365425 10163.540134824812 2829.7100307457149 6515.9600816071033 2752.4400327503681 6805.0100854970515 447.88000483810902 610.64000836014748 2330.0000323653221 2553.1600338220596 861.68001565337181 17.240000337362289 12201.180155955255 1684.0100213177502 201.0800022482872 655.34000984579325 1779.1600217223167 13592.430198248476 1005.4400132596493 3070.2800313234329 7432.2000835388899 245.02000280469656 3986.1200596392155 3119.88003885746 176.48000156879425 1429.8000167012215 2218.4200244918466 4601.6000605821609 991.07001576945186 1262.8600142970681 16.720000237226486 2316.7600339055061 4774.8200710639358 1249.860013820231 1362.6800149381161 2393.6700341664255 11194.28018219769 2791.9300430305302 4814.1900545470417 2749.6400269120932 2428.0100317038596 1576.5200138986111 3132.3600388467312 2372.8800302445889 2175.4800257384777 3800.44004522264 8742.5901093892753 98.320001140236855
leaf_count=406 1395 63 730 56 3213 686 1244 3852 426 5443 10307 2084 4869 1358 11540 1776 3181 3813 2420 4824 1094 1927 10879 578 3108 18210 902 635 17336 3083 6762 1819 17537 2232 643 26358 9009 1916 27584 370 7719 7140 6200 16340 2198 518 6295 4402 13776 30975 4499 3586 450 3217 9781 266 3184 1709 14986 3360 16123 7224 7836 2479 4768 1519 2997 26267 7505 24838 209 2792 3874 10437 9047 1691 2434 2357 1098 13340 3536 8399 3463 8782 552 828 3113 3318 1244 25 15648 2147 255 913 2290 17938 1299 3786 9262 322 5320 3980 210 1797 2801 6047 1405 1612 21 3140 6567 1588 1715 3186 15285 3795 6050 3321 3180 1867 4025 3066 2724 4793 11329 120
internal_value=-9.91433e-06 -0.011012 0.016676 -0.0205166 -0.00554589 0.0253024 0.00974355 -0.0177139 -0.0364871 -0.0091478 -0.0162426 0.0329896 0.0224658 -0.0018533 -0.00861806 -0.0248986 -0.0262518 -0.0143954 0.00704341 0.0137096 -0.0131932 -0.00762084 0.00790948 -0.0512108 -0.0324283 -0.000105171 0.0196958 0.024846 0.0255531 0.00543333 -0.0208346 -0.0221135 0.0215062 0.025207 -0.00729886 -0.0139813 0.0311137 -0.0040134 -0.00652967 -0.0580856 -0.0146841 -0.0354083 0.0154556 -0.0110831 0.0454023 -0.0257359 0.0238379 0.016276 0.011311 -0.00133383 -0.0276199 0.0280969 -0.00350406 0.00308115 -0.0232008 -0.0576462 -0.0282443 0.00923588 -0.00190296 0.00220897 0.00953426 -0.0178002 0.0284248 0.0305613 -0.0183586 -0.0125955 -0.00962683 0.0092888 0.000959466 -0.00523783 -0.0600825 0.00398218 0.00177256 -0.00472156 -0.0054935 0.0326777 -0.0323359 0.00371618 0.00694431 -0.00761905 -0.0258631 -0.00980835 -0.00577527 -0.01225 0.0347178 -0.00292681 -0.00160547 -0.00220708 0.00247971 0.050203 0.0169948 0.0196653 0.0191085 0.00478846 0.0201768 0.0295564 0.0253186 -0.0227695 0.0118873 -0.011609 0.0227953 0.00882163 -0.0281691 0.0102109 -0.00847781 -0.00464746 -0.00659256 -0.061476 -0.0434678 -0.00812272 -0.0144515 -0.0116992 -0.0440228 0.00521746 0.0152594 0.0169287 -0.0170946 -0.0313639 -0.00105966 0.0171732 0.00590725 -0.0191865 0.00752628 0.00327349 -0.0121042 -0.0186434
internal_weight=532084 320656 211429 117077 203579 94203.1 117226 99600.4 17476.5 103053 84962.2 25387.8 68815.3 100525 99702 3351.39 14638.1 60592.5 69745.7 47479.9 44786.2 5551.6 57233.4 3773.83 13702.6 55562.8 31808.8 37006.5 32942.6 19967.2 24369.8 3090.39 19039.1 6248.72 64949.3 39234.6 22058.1 44962.5 49716.1 1924.95 33779.4 7997.73 27473.2 34752.7 3329.68 14420.2 20631.7 22570.1 20006.6 36295.1 8812.95 4460.04 4012.68 12512.3 12455.4 261 5704.91 37266.2 16510.9 19267.7 35481.9 15806.2 12310.9 6112.04 11914.3 13382.7 5455.28 34218.1 10007.7 28451.5 217.96 10881.6 5068.46 18695.7 14981.9 1944.08 2386.52 3949.44 1999.84 31020.4 6426.43 15233.2 3095.48 22194 2333.28 1630.76 3713.8 26287.4 1383.8 1731.28 12769.7 5202.73 4063.88 1625.58 3556.76 15174 1581.56 5607.2 18381 18011 16107.2 7770.96 1651.79 21644.3 2463.44 23621.9 2514.6 1559.66 365.29 4829.68 7189.16 2414.34 1848.88 5086.92 17367.4 6173.13 8837.67 3120.68 13996.3 1777.6 5813.12 10189.8 5295.36 12196.2 15547.6 4912.51
internal_count=691168 414115 277053 149525 264590 125299 151754 127644 21881 134498 109425 33239 92060 130092 130364 4134 18219 78092 89906 61848 57495 6934 73775 4702 17179 71367 42326 49734 44687 25459 31333 3805 25948 8411 85347 50561 28932 58725 65408 2409 43751 10248 36653 45017 4307 17954 28951 30453 25195 46611 10987 6179 5007 16131 16543 329 6931 48316 21487 24756 45896 20597 15736 7900 14790 17393 6810 44187 12318 37238 265 13908 6666 24484 19484 2593 2952 4813 2456 40924 8035 19939 3913 28677 3031 2223 5000 34293 1887 2223 16378 6971 5047 2157 4412 19923 1985 6967 23038 23234 22656 9787 1986 28064 3123 30885 3321 1982 427 6353 9674 3107 2293 6546 23482 8197 10938 3747 18166 2122 7242 13373 6704 15672 20111 6170
is_linear=0
shrinkage=0.05


Tree=5
num_leaves=127
num_cat=0
split_feature=0 0 0 0 0 0 0 0 51 51 0 0 0 0 0 51 51 51 51 51 9 51 5 5 5 2 5 53 2 20 53 0 5 51 52 0 3 53 10 0 53 2 21 9 9 53 51 3 2 0 9 51 21 53 9 3 51 10 0 9 3 51 3 53 5 2 9 2 53 15 52 51 2 20 34 3 0 3 5 3 2 3 53 3 10 28 52 42 0 34 53 9 9 3 51 13 2 13 9 15 20 0 21 5 53 15 53 51 53 20 42 3 21 9 5 2 8 2 53 5 5 20 2 3 5 3
split_gain=35299.3 6268.02 4266.98 1977.98 988.485 740.075 495.811 392.681 390.985 329.19 222.459 215.112 164.221 151.41 124.967 106.852 99.8675 93.7868 88.3437 76.698 72.66 63.6963 87.1884 60.7393 58.6163 57.7738 50.3386 58.0717 48.0014 47.6871 47.3406 46.5104 45.9672 43.2144 38.3808 38.3121 35.4679 34.6603 44.7112 33.45 33.0992 31.4177 31.073 30.3852 28.4793 27.9451 27.8212 26.6583 26.4731 25.5239 25.2091 24.9546 23.9208 23.8445 23.6862 23.6695 23.1355 23.1223 23.0717 22.0148 21.833 21.5339 20.889 20.596 20.5651 19.8675 19.8515 19.1884 18.6917 18.3153 18.2959 18.2164 17.83 17.6224 17.5133 16.2499 15.5829 14.0893 13.7975 13.6901 13.6899 22.354 13.5851 15.7966 13.5313 13.371 13.2979 12.9261 12.708 12.6814 12.6075 12.3248 12.2712 12.1925 12.1648 11.969 11.8117 11.7918 11.7057 11.6744 11.7383 11.5458 11.3719 11.3674 11.3508 11.2573 11.1965 11.0807 11.0276 10.9361 10.9122 10.8145 10.6864 10.5334 10.3761 10.3204 14.9261 10.296 10.266 10.2161 10.1819 10.049 10.0067 9.92074 9.90752 9.80017
threshold=0.28681299090385443 -0.76140317320823658 0.92562475800514232 -1.717810273170471 -0.22980945557355878 1.5931261181831362 -2.2898758649826045 0.66452643275260936 -1.6211367845535276 -1.6768099665641782 2.4838461875915532 -1.2006938457489011 0.14278686046600345 1.1865615248680117 -2.743565440177917 -2.6432571411132808 -0.54315173625946034 -2.725871086120605 -0.04501627013087272 0.037274617701768882 -0.59409192204475392 -0.57838192582130421 -0.029673011042177674 0.44934697449207311 -0.49493002891540522 0.35223168134689337 -0.48574109375476832 -0.4814585000276565 -2.875206738710403 0.75167059898376476 -0.38744047284126276 2.0336811542510991 -0.49493002891540522 0.42060077190399175 0.88258665800094616 -1.4319161772727964 -0.32028995454311365 -0.30927257239818567 1.0000000180025095e-35 -2.0591499805450435 0.17846727371215823 -2.875206738710403 -1.2982112765312193 -0.59409192204475392 -1.4242570996284483 -0.30927257239818567 -3.1655775308609004 -0.34016339480876917 1.8457977771759035 2.6935738325119023 -0.59409192204475392 -2.3339686393737789 1.6178703904151919 -0.59589567780494679 -0.59409192204475392 -0.66932183504104603 -1.6768099665641782 0.42485602200031286 -1.3805633187294004 -0.59409192204475392 -0.34016339480876917 -3.139856100082397 -0.32028995454311365 0.71625438332557689 -1.3907949924468992 -2.875206738710403 -0.59409192204475392 -2.875206738710403 0.15048785507678988 -1.0000000180025095e-35 0.85261085629463207 -0.72587817907333363 -2.875206738710403 0.657108634710312 -0.57355887070298184 -0.46540524065494532 -0.52716538310050953 -0.32933391630649561 -0.038872821256518357 -0.32933391630649561 -2.875206738710403 -0.31105926632881159 -0.38744047284126276 -0.34016339480876917 0.80730682611465465 0.80383107066154491 0.87969401478767406 2.3958996534347539 0.41701526939868933 1.0000000180025095e-35 -0.74403312802314747 -1.4242570996284483 -0.59409192204475392 -0.32028995454311365 -0.69835057854652394 2.0560936927795415 -2.875206738710403 1.0000000180025095e-35 -0.59409192204475392 -2.7938838452100749 0.6968672275543214 0.72813409566879284 0.8747885823249818 -0.51635107398033131 -0.20087137818336484 -2.7938838452100749 -1.0813881456851957 -0.69000038504600514 -0.74403312802314747 0.15567200630903247 1.7061083316802981 -0.32933391630649561 0.8965832293033601 -0.59409192204475392 0.92212387919425975 -0.37083172798156733 0.011040407698601486 0.13280968368053439 -0.38744047284126276 -0.28406406939029688 -0.95890116691589344 0.95111581683158886 0.19451311975717547 -0.31105926632881159 0.4609403014183045 -0.38482509553432459
decision_type=2 2 2 2 2 2 2 2 2 2 2 2 2 2 2 2 2 2 2 2 2 2 2 2 2 2 2 2 2 2 2 2 2 2 2 2 2 2 2 2 2 2 2 2 2 2 2 2 2 2 2 2 2 2 2 2 2 2 2 2 2 2 2 2 2 2 2 2 2 2 2 2 2 2 2 2 2 2 2 2 2 2 2 2 2 2 2 2 2 2 2 2 2 2 2 2 2 2 2 2 2 2 2 2 2 2 2 2 2 2 2 2 2 2 2 2 2 2 2 2 2 2 2 2 2 2
left_child=1 3 7 6 9 13 14 19 17 15 31 35 18 32 36 46 40 61 50 59 71 30 53 52 48 39 27 57 102 85 67 103 37 54 43 47 -1 38 -4 -8 65 51 -40 -18 -26 66 -3 113 101 -12 79 -19 64 89 111 -16 -27 -15 -43 77 -24 -5 92 -53 -21 90 -20 97 80 88 -42 -13 73 -68 -29 94 -67 -2 -70 107 109 -82 -61 -84 95 104 -52 115 -66 -23 -11 -78 -34 121 -37 -76 -49 119 -58 -28 -101 -9 -17 -7 -25 -59 -71 -6 110 -45 -31 -14 -55 -10 -47 -51 -117 -74 -56 -22 -107 124 -35 -120 -46 -105
right_child=2 4 5 8 12 10 25 24 11 16 49 20 33 26 55 28 34 41 45 23 21 22 60 29 44 56 99 74 -30 108 -32 -33 62 122 -36 75 -38 -39 42 -41 70 58 -44 68 93 114 -48 96 -50 87 86 63 -54 112 118 -57 98 105 -60 82 -62 -63 -64 -65 69 76 72 -69 78 106 -72 -73 117 -75 84 -77 91 -79 -80 -81 81 -83 83 -85 -86 -87 -88 -89 -90 -91 -92 -93 -94 -95 -96 -97 -98 -99 -100 100 -102 -103 -104 125 -106 120 -108 -109 -110 -111 -112 -113 -114 -115 -116 116 -118 -119 123 -121 -122 -123 -124 -125 -126 -127
leaf_value=-0.041494954633607466 -0.0066218035440871459 -0.098923342598377331 0.017234798059607592 -0.075997894638874033 -0.015258914014032322 0.028308304962441157 -0.034107259784938317 0.012009384517450572 -0.021058374357523644 0.0027487266284465851 0.038476701330552344 -0.017674056611479395 -0.0060225374380034119 0.02264322178035566 -0.030311132489863252 -0.025519598936599761 -0.0082946964653923504 -0.037145325070616755 -0.0039518578814431975 0.01561122296020423 -0.013973219577153593 -0.0051170066068678089 -0.0091377985097993164 0.0062552089754514192 0.0020589626074847276 -0.028216485960001439 0.0096815497257034602 0.019874557220237669 -0.013870596017653891 0.009782574699921864 -0.013973219577153593 0.032778558387468307 0.0026961279510772733 0.0031812964972067603 -0.0089721904953210668 -0.016345356272477182 -0.058732441847296674 0.018355555839976691 0.032034438583838601 -0.028281169292608224 -0.010687563874454874 -0.02415465854596642 0.022942391590702636 -0.0021208338425635319 0.010146652611511134 -0.0018870051397001193 -0.048449227276618281 -0.011895884533476106 0.020520941509741465 0.050859029020318115 -0.003433973311729429 -0.0207785346985268 0.0035414619378784009 -0.0046503471511407267 0.0024384200677562183 -0.041387073974986761 -0.025797538132331283 0.022758637121537657 -0.019049407398424686 0.0059951893829937415 -0.013973219577153593 -0.043916541595099876 0.017610936951272582 -0.029212432801688254 0.0065196617136970272 -0.010968887225712749 0.0017064572356353246 -0.012901310831449353 -0.0039184407860009089 0.013015429353948796 -0.014528921461857436 -0.013973219577153593 -0.0013995523604322354 0.0083804968595058357 0.022096309981891226 -0.017686444303113252 -0.014789450063706961 0.00097511620371841285 -0.0067454375747432599 -0.005720876728438443 -0.0024012124243501173 -0.0067454375747432599 0.00097511620371841285 0.00525450572949673 0.027016744127893417 0.0014134075087735174 -0.005720876728438443 0.056523764631487887 0.0091003013471700651 0.007988191860866219 -0.0066521255368287863 -0.0075309537106496658 0.01312076241678348 0.012883233120899435 -0.012015864307867261 0.026772229001409437 -0.022542574369360288 -0.0051017290235906461 -0.02004867164340992 0.014731372673538285 0.021073597841987229 0.014936547923238794 -0.038825003536657549 0.018900261446256988 0.0031965748522775985 0.030870707734332949 0.0097984481921106672 -0.0082018378980474194 0.0064394218576786294 0.0060179684693719097 0.02284425953580892 -0.0010175093177740445 -0.011887524653282815 -0.016553706222189813 -0.0054291928832104937 -0.0053432886518519863 0.042943609235787994 0.0015605223580664636 -0.0010175093177740445 -0.0079085991549724521 0.027209595432661795 0.012010277822042221 0.0072663435330497655 0.0017014558122587058 0.006798049647793257 0.027076009768299603
leaf_weight=387.01000351086259 883.68001382052898 31.760000437498093 2901.4400343745947 77.040001049637794 718.0400103032589 15483.030226510018 3782.860043130815 4122.8400570303202 1802.0800197422504 573.52000595629215 1559.8900214768946 7773.7901064567268 1761.8500198461115 2544.280027076602 587.72000528872013 1513.6900140531361 10398.080140337348 573.11000467464328 2200.480029001832 1327.9300207085907 864.68000866472721 275.16000285744667 2787.840032145381 6208.8000794649124 837.52001231908798 2398.5600232481956 391.92000468075275 5009.2800748795271 1189.5500133149326 5140.4800526350737 20095.12025244534 6910.8300970308483 315.40000365674496 2804.2300371043384 13669.450186360627 4096.6400465965271 1555.2600171044469 16383.250259865075 1208.4400176405907 7363.3100830130279 12993.410159874707 5241.0600563511252 4432.6800726205111 1740.3200266510248 2503.7600254714489 20709.690271575004 230.32000215351582 276.36000260710716 1939.440039768815 418.72000499069691 24571.620316721499 1269.2000122666359 1773.8000199049711 4110.8400476127863 9890.4001161456108 3249.1800347343087 1362.7100158594549 929.88001492619514 3910.3100409470499 5274.8000566065311 3719.3800523504615 192.12000152468681 3778.1700498647988 1753.3200192898512 5959.1600869745016 6724.3600867688656 3493.6400407403708 3072.0400367826223 5256.2300616167486 3497.760030195117 4099.1800493374467 5542.8400687873363 4624.8400593400002 1380.6400145888329 11093.950200494379 11956.810162562877 620.38000904768705 542.96000742912292 15074.820214800537 2779.1700407601893 5909.8800697624683 4735.1800714656711 1718.3700198717415 2490.480032980442 2161.8800362348557 3665.9600433707237 5792.3800761476159 339.28000561892986 12501.030187916011 554.52000489830971 937.76001237332821 10782.230139177293 2845.680029258132 8054.530105445534 2737.9200296103954 1604.4100305177271 6996.5400960817933 2177.7200248837471 2704.8500309772789 1137.1200132668018 2140.1200226992369 19695.370284933597 185.72000168263912 638.84000642597675 3122.9200433343649 3285.520042270422 12332.610154483467 2533.0800302177668 3123.6500476635993 539.92000731825829 165.32000175118446 1518.4200234934688 583.46000678092241 4954.0000535994768 2298.4000292867422 15.880000248551367 945.08001238107681 4615.0000524967909 5456.3400628790259 1815.6000228971243 4990.8400695919991 3464.1200321316719 3241.7200389355421 5678.380082167685 1341.4800142794847 925.84001131355762
leaf_count=453 1230 46 3622 102 956 20437 4801 5408 2229 718 2038 10239 2182 3110 697 1832 13605 683 2854 1802 1075 336 3519 7953 1133 2902 500 6692 1511 6198 25995 9055 385 3646 18015 5110 1980 22325 1583 9380 16849 6571 6127 2364 3046 26985 287 333 2881 520 32022 1565 2212 5151 12427 4084 1712 1270 4826 6526 4960 221 4901 2210 7927 8793 4360 3923 6714 4090 5329 7125 5927 1704 15857 15787 839 736 20060 3777 7437 6388 2182 3357 3029 4594 7619 467 16767 655 1258 14043 3466 10485 3403 2311 9328 2738 3413 1420 2663 26061 221 772 4100 4199 15788 3177 4228 717 198 2139 745 6121 2954 22 1211 5726 6849 2328 6459 4125 4061 7756 1649 1180
internal_value=2.61587e-06 -0.0102399 0.0161991 -0.0191689 -0.00485448 0.0240253 -0.0322483 0.00958478 -0.0160847 -0.00849664 0.0309782 -0.0148644 -0.00151654 0.0212048 -0.0449604 -0.0243922 -0.00796379 -0.0241632 -0.00276217 0.00728465 -0.0129048 -0.0118399 -0.0087941 0.00799891 0.0134069 -0.0280745 0.0234624 0.0241069 -0.0216014 0.00587521 -0.0131469 0.0293031 0.0187038 0.00159073 -0.0066591 -0.0180506 -0.0553235 0.0197074 0.022297 -0.0302618 -0.00999958 -0.0235421 0.0248963 -0.0059345 0.0110476 -0.00111889 -0.0549377 -0.0200321 0.0148902 0.0432034 -0.00453746 -0.0275192 0.00921554 -0.00417192 0.000649437 -0.0397002 -0.0242993 0.0269001 -0.0219761 0.0034331 -0.0127159 -0.0533648 0.0150958 -0.0256806 0.00949786 -0.00859723 0.000463747 -0.00980459 -0.00519618 0.00926052 -0.0116099 -0.0161065 0.00115275 0.00359924 0.0224536 -0.01657 -0.00905659 -0.00235414 -0.0061418 -0.00749132 -0.00370801 -0.00446109 0.00430437 0.00218321 0.0233212 0.00397444 -0.00395043 0.0474649 0.00818797 0.00363496 -0.0030818 -0.00792757 0.0120834 0.0115371 -0.0146137 0.0226896 -0.0221404 -0.00784304 -0.0219817 0.0179015 0.0188797 0.0144306 -0.0269986 0.0278921 0.00497974 0.0280734 0.0105103 -0.00976621 0.00880467 -0.000189726 0.0101947 -0.00330118 -0.00555327 -0.0177589 -0.00224129 0.0451943 0.0421357 -0.000137545 0.00126616 -0.0100658 0.0286671 0.0100516 0.00537329 0.000224336 0.00828303 0.0237553
internal_weight=531955 325875 206080 122601 203274 94391.7 23391.5 111689 99209.5 97205.8 27237.4 86193.3 106068 67154.3 5779.17 3151.04 94054.7 13016.2 75717 69729.7 53373 40056.4 12031.2 58819.4 41959.1 17612.3 35289.2 31620 2888.96 21427.1 28025.2 23958.5 31865.1 30351.3 57323.9 32820.4 1942.27 24925.8 8542.56 11146.2 36730.8 12747 5641.12 43654.4 16201.4 39322.7 262.08 14029 25757.7 3278.85 36394.3 3595.63 37392.3 5523.98 24305.4 3836.9 6466.12 11750.5 9151.37 10910.3 6507.22 269.16 6939.25 3022.52 35618.5 19638.3 16314.6 7930.04 33256.4 34290.6 17092.6 13316.6 14114.1 4874.28 19869.5 18791.4 18127 1426.64 20331.1 6030.29 12925.3 10645.1 9483.65 4208.85 14860.2 12997.7 30364 1718.96 18460.2 829.68 1511.28 11402.6 3161.08 15363.9 6834.56 12698.4 7272.9 4858 4067.56 3669.16 3277.24 23818.2 1699.41 17047.7 9331.72 9206.24 15830.4 3251.12 8429.45 2280.24 5305.8 3280.27 4694.3 6756.08 23008.1 1379.68 960.96 9239.84 21025.1 2680.28 8276.36 7309.36 6045.95 11134.7 3845.24 1564.68
internal_count=691144 420847 270297 156700 264147 125621 29422 144676 127278 127026 35702 111100 137121 89919 7214 3897 123129 16178 98061 89888 68789 51425 15366 75857 54788 22208 47510 42927 3564 27271 36059 31444 42409 39060 75300 42311 2433 33657 11332 14181 47829 15855 7710 57285 20438 50510 333 18011 34350 4258 47551 4458 48586 6887 31353 4781 8027 15038 11397 14031 8479 323 8752 3775 46374 25651 20571 10064 43680 44572 22178 17364 17717 6064 27889 24300 23675 1966 26774 7910 16906 13825 12065 5539 21197 16647 39641 2220 24694 991 1976 14882 3851 19305 8513 18168 9661 6141 5125 4583 4083 31469 2053 22389 12053 11928 19878 4133 10624 3081 6396 4321 5896 8350 29939 1753 1233 11653 27032 3403 10658 8820 7707 14605 4695 1952
is_linear=0
shrinkage=0.05


Tree=6
num_leaves=127
num_cat=0
split_feature=16 4 6 10 20 12 13 16 5 6 4 5 4 4 5 4 4 5 9 6 5 15 4 8 16 21 4 42 6 5 5 13 13 5 5 5 5 4 5 6 15 5 4 23 6 13 18 27 6 21 6 4 9 9 6 5 15 13 13 4 9 10 6 9 4 5 5 5 42 4 21 21 9 4 5 6 20 13 4 9 36 5 12 13 5 28 30 21 6 36 6 5 20 42 9 6 9 9 13 25 3 4 5 4 28 4 6 21 4 4 20 10 5 4 9 4 21 5 5 13 6 21 9 6 6 53
split_gain=27267 5739.54 1659.67 1035.9 689.375 618.216 592.891 502.615 480.477 424.068 321.94 644.29 254.977 280.224 234.424 213.421 177.824 166.453 152.468 148.347 145.404 141.047 138.124 126.574 116.552 107.133 102.437 98.6944 93.0621 92.4124 90.8832 85.39 78.6413 76.0752 64.7552 63.4356 62.536 67.1654 61.6133 58.9667 57.1588 51.2469 44.2912 44.1382 42.7901 41.4419 41.1468 38.9091 37.9737 37.9701 35.6723 34.7039 34.2856 32.4654 32.4533 32.1751 31.798 31.4994 27.6835 27.89 27.5758 27.4973 27.0665 26.1577 25.2641 25.1272 33.0161 24.4362 24.1797 23.8503 23.3636 22.2804 22.2485 21.2299 20.6692 20.5582 20.452 20.4176 20.2757 20.1141 20.1044 19.8907 19.8297 19.4251 19.3232 19.0825 19.0104 18.9756 18.0758 18.0184 17.5819 17.427 17.1468 16.5844 15.8665 15.7791 17.2356 15.5895 15.323 15.088 15.8813 14.867 14.6133 16.5359 14.5503 14.5115 14.3056 14.2031 14.0987 13.8692 13.2083 13.0504 12.9969 12.838 12.6465 12.527 12.4993 12.393 12.3693 12.1684 12.0914 12.0506 12.0147 11.8398 11.6484 11.6296
threshold=0.23126206547021869 0.38893203437328344 -0.14161110669374463 -0.037651744671165936 0.75633317232131969 0.74191525578498851 -2.1240158081054683 -0.17657680064439771 0.49312421679496771 0.24915364384651187 0.096817471086978926 1.3061568140983584 0.20745398104190829 1.0278369784355166 -0.48574109375476832 -1.1456903815269468 2.7475087642669682 -0.52746930718421925 -0.59409192204475392 0.3092725425958634 -0.029673011042177674 -1.0000000180025095e-35 0.86606585979461681 -0.52761071920394886 -1.0000000180025095e-35 2.4187533855438237 0.75470247864723217 1.2855830788612368 0.91216108202934276 0.96852493286132824 0.089280795305967345 1.0000000180025095e-35 -0.053391760215163224 -0.61792299151420582 -0.019776982255280014 -1.6242291927337644 -0.50725424289703358 1.0752448439598086 -0.64870455861091603 0.74403309822082531 -2.7938838452100749 -0.72910690307617176 -1.0552310347557066 -0.6160728633403777 0.3092725425958634 -1.0000000180025095e-35 -0.058376675471663468 -0.49088053405284876 0.48145854473114019 1.3463162779808047 0.59589564800262462 1.3402110338211062 -1.4242570996284483 -0.59409192204475392 0.59589564800262462 0.054028499871492393 -2.7938838452100749 -0.053391760215163224 2.1744849681854252 1.0419963598251345 -0.59409192204475392 -0.037651744671165936 0.59589564800262462 -1.4242570996284483 -0.37857466936111445 0.24476280808448794 -0.350812017917633 0.28876732289791113 -0.048509642481803887 0.51955971121788036 1.3463162779808047 1.2521523237228396 -0.59409192204475392 0.69272902607917797 -0.58068212866783131 -0.39395205676555628 0.657108634710312 -0.3644047006964683 -2.6719355583190914 -1.0000000180025095e-35 0.74702683091163646 -0.038872821256518357 -0.72058233618736256 0.89108458161354076 -1.15618360042572 0.59646320343017589 0.63884940743446361 1.1937394738197329 -0.77007827162742604 1.5558595657348635 0.59589564800262462 -0.53834268450736988 2.0018916130065922 1.7061083316802981 -0.59409192204475392 1.0813880860805514 -1.4242570996284483 -0.59409192204475392 2.0560936927795415 1.0000000180025095e-35 0.87776145339012157 1.0116019248962405 -0.34054897725582117 -2.6719355583190914 0.59646320343017589 1.5718585252761843 0.74403309822082531 1.2994647622108462 1.0419963598251345 -0.81563007831573475 2.0018916130065922 0.80730682611465465 -0.76062375307083119 -0.38845923542976374 -0.59409192204475392 0.24714580923318866 1.3672441840171816 -0.40150423347949976 0.14823082834482196 1.7073761820793154 -2.22580873966217 1.3463162779808047 -0.59409192204475392 -0.07284227572381495 -0.39395205676555628 -0.38744047284126276
decision_type=2 2 2 2 2 2 2 2 2 2 2 2 2 2 2 2 2 2 2 2 2 2 2 2 2 2 2 2 2 2 2 2 2 2 2 2 2 2 2 2 2 2 2 2 2 2 2 2 2 2 2 2 2 2 2 2 2 2 2 2 2 2 2 2 2 2 2 2 2 2 2 2 2 2 2 2 2 2 2 2 2 2 2 2 2 2 2 2 2 2 2 2 2 2 2 2 2 2 2 2 2 2 2 2 2 2 2 2 2 2 2 2 2 2 2 2 2 2 2 2 2 2 2 2 2 2
left_child=2 4 6 17 8 21 25 10 52 22 11 15 20 34 26 47 24 44 80 -6 71 43 41 -13 30 46 38 40 76 39 55 67 -10 58 75 -17 37 88 54 78 -21 69 -25 77 119 118 53 65 111 -30 81 74 -2 -1 92 57 -50 89 59 95 -52 -42 -31 -56 -63 66 -8 105 109 123 79 94 -19 -43 -39 115 -23 -4 -20 124 -7 -45 -78 117 110 -58 104 114 -24 122 -61 101 -11 -29 -12 98 -97 -44 112 100 -27 -35 -47 -104 -55 -15 -95 -62 -64 -26 -65 -34 -28 -113 -69 -14 125 -74 -41 -3 -96 -53 -9 -5 -49 -79
right_child=1 3 5 9 19 18 7 16 32 14 12 23 13 31 -16 35 -18 72 29 27 -22 28 36 42 68 99 33 93 49 62 -32 -33 48 91 -36 -37 -38 51 -40 45 61 73 97 50 -46 102 -48 70 56 -51 60 121 -54 86 63 -57 85 -59 -60 90 107 64 108 84 -66 -67 -68 87 -70 -71 -72 -73 83 -75 -76 -77 82 116 -80 -81 -82 -83 -84 -85 -86 -87 -88 -89 -90 -91 -92 -93 -94 106 120 96 -98 -99 -100 -101 -102 -103 103 -105 -106 -107 -108 -109 -110 -111 -112 113 -114 -115 -116 -117 -118 -119 -120 -121 -122 -123 -124 -125 -126 -127
leaf_value=-0.032190375216076372 -0.0018134791559164748 0.013324892275344431 -0.0076087961627897592 0.012668316412958389 0.0060186370595377431 -0.014459084716129628 -0.020006447966728305 -0.0058169496739031825 -0.0044819305633982806 0.021695869036573619 -0.0067870318567360465 -0.015081385314293552 -0.013531871911184335 -0.01430550019122246 0.011074848821331404 -0.014660897267215351 -0.020006447966728305 0.0037296900074174433 -0.001790169617165276 0.0060186370595377431 -0.020006447966728305 -0.00250684219556669 0.018407343382553957 -0.020006447966728305 -0.020006447966728305 -0.04450739527930709 0.026697103337553915 0.015467503828920271 0.0086223487903033889 -0.0068787302813597649 -0.020006447966728305 -0.0061644698418017885 -0.0016668472988781704 0.023641240636029376 -0.020006447966728305 -0.020006447966728305 0.012376920710761265 0.028255754849575189 0.0099044071596476983 -0.01179045041503477 0.0083011497820760696 0.011828891415333401 -0.010128137052432585 -0.0030018572654283379 0.018239408103015553 0.0064172683763307203 -0.020006447966728305 -0.015156605419530386 -0.0022217424293714395 0.00069790232496096853 -0.0042569876243057593 0.06420462224123466 0.0060186370595377431 -0.020006447966728305 0.016808195308537867 -0.0077109992141368086 0.0048942394956240712 0.0033001158537751167 0.047018980257617339 0.031068853607779667 0.0042071996966761898 0.0091098618701802945 -0.0028102549558467966 0.029327441086654749 0.013750383489681951 -0.020006447966728305 -0.014564599503112591 -0.013727894604183125 -0.0098498581125280021 0.017695327298457599 -0.020006447966728305 -0.014896960649716113 0.0094510166223276456 0.016620645626444202 0.021898571677580456 -0.008368250684058276 0.0084560083063411669 -0.0016217323805605829 -0.011907354505615487 -0.0095528728521015478 -0.020312671627183809 -0.010592964261324729 -7.7338817413764426e-05 0.018625254602495155 0.025581457644364199 0.0011191153546016874 -0.028209148057221474 -0.020006447966728305 0.022465405366065002 -0.00853685965172408 0.037943833358548229 0.021131282207232715 0.033148611169378374 0.018387551553667371 0.0046273151908424459 0.022117374726634987 0.034116052147489417 -0.0065468029152792725 0.038849874817672547 -0.038839760222036626 -0.0715338089024007 0.030489146821810493 0.0027063288008120096 -0.005667953263978418 -0.026366279975529806 -0.020006447966728305 0.025418456836737546 -0.00076943222064409372 0.0048411624317186404 -0.014181770004757566 0.04221345287496505 -0.0021143168612864933 0.031513999336107108 0.002948813397977622 -0.0096422447212331647 -0.019550678989646242 -0.0058697896455841905 0.0063056786222696606 -0.0077580743271320821 0.028160048979039943 -0.0034104826072034211 0.012706597555501277 -0.0024964882672758441 0.026821786419524242 -0.011854192441735327 -0.0044797195696636323
leaf_weight=1861.3000224903226 1575.8400229364634 15621.950220208615 6278.0000914931297 175.89000234380364 6862.5400947853923 6133.5900918506086 2058.3600230664015 3646.8300372026861 12428.14016213268 7780.560158982873 3862.7300456352532 7779.4200998619199 2167.6900260038674 2938.0500302053988 2583.2400378882885 10489.880144789815 1815.4400194585323 2572.8300330005586 511.36000619828701 3814.2000516802073 1611.2000187933445 7837.0600907579064 5189.0100833810866 125.64000223577023 786.88000711798668 182.61000210419297 5969.5200917422771 2596.4400314837694 4954.9200432002544 5243.9700627364218 927.88000904023647 8456.7900980971754 21338.700281865895 1844.0800333470106 8284.4200868234038 21924.300243519247 1523.080025061965 4720.5300765223801 738.56001199781895 3588.1600401252508 4967.3700585253537 5984.0800997614861 3799.6500580050051 4168.2700495384634 6689.1600866168737 314.72000329196453 882.29000877216458 7463.5701026059687 2452.3200354129076 2177.3600208759308 1937.7600241452456 81.520001500844955 32825.550405751914 1529.6700188629329 692.0800106972456 5270.6000740975142 6511.8400759547949 1655.9600214511156 267.84000405669212 2011.8800381422043 4017.6400423198938 3940.4000413268805 4642.7200487405062 2921.720036149025 11666.840124070644 4658.7700635977089 9397.8801251798868 2646.4000301212072 1650.2800150513649 16581.15028071031 514.48000602424145 489.61000578477979 8194.6500975079834 3802.6500622965395 1797.770028475672 1187.1600144952536 900.28001074492931 5722.3200920075178 17360.00022919476 3153.6800235509872 1947.5700262673199 1089.0000139027834 2778.2100316174328 490.12000393867493 8092.6001044362783 6897.7600774168968 1818.7700193710625 434.64000421762466 5996.5800952091813 1881.9100205563009 1842.400023624301 2577.6400296539068 346.08000591397285 1201.5200191885233 489.92000597715378 352.04000549018383 2473.1200289726257 15401.500242210925 184.04000259935856 628.17000656202435 85.880001038312912 1453.8200216665864 670.40000769495964 4806.8800596743822 1051.5300115831196 772.24000775814056 1136.4800125658512 1244.2800126373768 690.40000660717487 1290.7200121879578 220.8400015681982 1977.7200285792351 1906.8800278753042 3405.010048288852 6823.6100778020918 1468.480013936758 3815.0400582700968 2747.5300356335938 4097.3200535327196 139.92000243067741 9825.560118407011 14.120000660419462 10822.890127945691 1083.4900157339871 2359.3400326743722 3390.0100545175374
leaf_count=2440 2100 20583 8398 234 9158 8290 2648 4545 16092 11600 4839 9856 2784 3637 3410 13887 2258 3333 680 4940 2015 10003 7096 184 942 234 7992 3294 5878 6666 1161 10937 27688 2644 10338 27469 2100 6521 1015 4479 6237 8265 5112 5334 8555 380 1130 9889 3244 2632 2475 113 41723 2027 932 6990 8149 2163 350 2905 4918 4795 5694 3656 14277 6087 12442 3385 2018 23050 667 623 10376 5196 2480 1534 1165 7837 22874 3895 2541 1404 3600 573 10204 8502 2355 542 8176 2409 2352 3225 490 1652 628 477 3081 20928 235 786 115 1935 849 6179 1344 963 1392 1510 841 1554 253 2606 2510 4499 8730 1804 5169 3589 5268 196 12494 33 13919 1433 3156 4701
internal_value=-4.47744e-07 0.0118743 -0.0107918 0.0193401 0.00428557 -0.00564648 -0.0136854 -0.0130589 0.00192891 0.0221878 -0.0143084 -0.0161267 -0.0111587 -0.013553 0.0257 -0.0189373 -0.00715394 0.0122153 -0.00958343 0.0101084 -0.00598364 -0.00173302 0.0188762 -0.00969535 -0.00615518 -0.026954 0.0266062 0.0117884 0.00171643 -0.00837071 -0.00488701 -0.0101128 -0.000982765 0.0290835 -0.0193442 -0.0200064 0.022121 0.0229537 0.0241164 -0.00973439 0.0104823 0.0166059 -0.00752643 -0.00376476 0.014884 -0.00723528 -0.0249007 -0.0154858 3.84457e-05 0.00620429 -0.00144606 0.0269551 0.00601864 -0.0266284 0.0246391 -0.00427447 0.00197644 -0.00326799 0.0309758 0.0306808 0.00083978 0.0115475 -0.00432796 0.0263066 0.0125798 -0.0171469 -0.0158789 -0.0125643 -0.0143849 0.0182028 -0.0135001 -0.00441607 0.00793591 0.0136928 0.0265068 -0.0141011 -0.00106303 -0.0052683 -0.0116183 -0.0130381 -0.0158728 -0.00457696 0.0020115 0.00888167 0.0268897 0.00295296 -0.0242676 -0.0112635 0.0205851 -0.00393362 0.0343655 0.0242449 0.0221882 0.0182394 -0.00405276 0.0293726 0.032631 -0.00725625 0.028226 -0.043261 -0.0534041 0.0266699 -0.00403897 -0.00464175 -0.0214786 -0.0160314 0.0213076 0.00271812 -0.00181808 -0.0179782 0.0302477 -0.0011118 0.0278678 0.00108754 -0.0107858 -0.0159687 -0.00413078 0.00844312 -0.00964263 0.0134587 -0.00302784 0.0568635 -0.00333404 0.0248606 -0.0141555 -0.00308965
